tree
version=v4
num_class=1
num_tree_per_iteration=1
label_index=0
max_feature_idx=17
objective=lambdarank
feature_names=Column_0 Column_1 Column_2 Column_3 Column_4 Column_5 Column_6 Column_7 Column_8 Column_9 Column_10 Column_11 Column_12 Column_13 Column_14 Column_15 Column_16 Column_17
feature_infos=[-0.099382773041725159:0.13189011812210083] [0:0.812796950340271] [-0.035404402762651443:0.062077745795249939] [0:1] [4.1999998092651367:4.9000000953674316] [0.0076335878111422062:1] [0:1] [0:1] [0:1] [0:1] [0:1] [0:1] [0:1] [0:1] [0:1] [0:1] [0:1] [0:1]
tree_sizes=905 902 917 904 917 916 919 913 915 916 912 912 908 923 922 918 916 904 916 911 924 918 917 916 907 911 915 913 916 920 909 918 904 912 908 912 912 904 916 907 914 909 908 903 911 908 907 908 918 910 907 908 906 909 906 911 904 909 908 918 909 910 914 910 902 915 907 913 914 909 903 910 913 910 906 913 916 910 911 921 916 915 911 912 914 921 929 923 907 921 911 913 918 927 916 918 907 909 912 920 919 916 929 922 922 815 925 922 918 920 928 921 911 921 933 917 921 922 929 923 923 929 924 928 924 927 934 930 935 921 923 928 921 922 927 925 926 923 926 921 922 921 927 918 922 902 913 921 917 920 931 916 925 908 926 916 931 926 928 928 930 913 902 915 908 908 908 912 906 909 921 926 921 910 929 929 927 908 915 905 909 922 922 923 906 920 925 907 917 909 910 916 927 921 913 913 920 924 918 920

Tree=0
num_leaves=7
num_cat=0
split_feature=11 3 3 1 5 4
split_gain=1972.06 69.0262 66.8261 38.1859 29.4386 25.0131
threshold=1.0000000180025095e-35 1.0000000180025095e-35 0.77936464548110973 0.45146355032920843 0.35954198241233831 4.4500000476837167
decision_type=2 2 2 2 2 2
left_child=1 -1 3 -2 -4 -5
right_child=2 -3 4 5 -6 -7
leaf_value=-0.050264031772668041 -0.046506500372411635 0.05311140235876672 0.052134731362763205 0.006915829312498561 -0.020321081129024549 -0.033228964388282052
leaf_weight=5.1627152635483062 389.14736518282098 367.19960594311124 8.6533837544939178 19.624762773273687 9.7486596102535241 45.012132229481722
leaf_count=433920 176604 1768638 14757 9151 2379 17048
internal_value=0 0.0515473 -0.0406728 -0.0429449 0.0146816 -0.0211207
internal_weight=0 372.362 472.186 453.784 18.402 64.6369
internal_count=2422497 2202558 219939 202803 17136 26199
is_linear=0
shrinkage=0.03


Tree=1
num_leaves=7
num_cat=0
split_feature=12 1 5 4 1 5
split_gain=5993.6 81.0839 44.6291 36.6276 18.1916 11.9688
threshold=1.0000000180025095e-35 0.14975337684154513 0.023664122447371486 4.6499998569488534 0.14975337684154513 0.020610686391592029
decision_type=2 2 2 2 2 2
left_child=4 5 -3 -4 -1 -2
right_child=1 2 3 -5 -6 -7
leaf_value=0.047573905025144636 0.029462758106881169 0.042827092260855786 -0.02911810786387747 -0.042866703485023118 0.05661645982044812 -0.051267502064792386
leaf_weight=356.02772780329542 1.0595774407265697 5.6376317870235644 336.6062906653824 391.31711986687878 689.24468933793105 579.51522302774538
leaf_count=1421089 2102 4273 75824 46763 781403 91043
internal_value=0 -0.0426301 -0.0358902 -0.0365577 0.0535849 -0.0510698
internal_weight=0 1314.14 733.561 727.923 1045.27 580.575
internal_count=2422497 220005 126860 122587 2202492 93145
is_linear=0
shrinkage=0.03


Tree=2
num_leaves=7
num_cat=0
split_feature=15 10 1 14 9 1
split_gain=1966.62 549.854 320.971 258.534 183.32 183.057
threshold=1.0000000180025095e-35 1.0000000180025095e-35 0.14633558690547946 1.0000000180025095e-35 1.0000000180025095e-35 0.14975337684154513
decision_type=2 2 2 2 2 2
left_child=1 3 -2 4 -1 -3
right_child=2 5 -4 -5 -6 -7
leaf_value=0.044827482118497373 0.048232065592108304 0.044910329374638555 -0.044697023103963202 0.0060117968853258732 0.013705797047078437 -0.029885859199555033
leaf_weight=654.07849491499655 34.343668023546343 33.001005630772852 696.10109014430054 342.78957058720698 231.75110640919593 223.04250762248193
leaf_count=1541708 139339 165443 80991 219919 220178 54919
internal_value=0 0.0198253 -0.0402678 0.028157 0.03671 -0.0201083
internal_weight=0 1484.66 730.445 1228.62 885.83 256.044
internal_count=2422497 2202167 220330 1981805 1761886 220362
is_linear=0
shrinkage=0.03


Tree=3
num_leaves=7
num_cat=0
split_feature=13 16 1 1 3 1
split_gain=2099.7 431.464 403.466 240.22 95.0666 86.9511
threshold=1.0000000180025095e-35 1.0000000180025095e-35 0.14292948693037036 0.31343969702720648 0.373610869050026 0.23664729297161105
decision_type=2 2 2 2 2 2
left_child=1 -1 -2 -4 -3 -6
right_child=2 4 3 -5 5 -7
leaf_value=0.035387267147564197 0.042881431347787144 -0.036147823782264672 -0.051225811379788315 -0.013741089754922 -0.019056003666700624 0.022126894325845387
leaf_weight=924.78434962978645 53.877341757382965 76.529304743162356 585.64233323099324 209.81175623685704 83.562357007846003 100.58466813730774
leaf_count=1982116 135632 93532 57940 26547 98680 28050
internal_value=0 0.0257866 -0.0359798 -0.0413684 -0.0082781 0.0034369
internal_weight=0 1185.46 849.331 795.454 260.676 184.147
internal_count=2422497 2202378 220119 84487 220262 126730
is_linear=0
shrinkage=0.03


Tree=4
num_leaves=7
num_cat=0
split_feature=7 8 11 17 3 1
split_gain=615.559 521.94 529.724 385.538 377.671 163.518
threshold=1.0000000180025095e-35 1.0000000180025095e-35 1.0000000180025095e-35 1.0000000180025095e-35 0.77936464548110973 0.14800114184617999
decision_type=2 2 2 2 2 2
left_child=1 2 3 -1 -4 -3
right_child=-2 5 4 -5 -6 -7
leaf_value=0.041715786172253112 -0.031674596731175661 0.034660383983192468 0.056263798787205027 -0.0248355953817865 -0.026767260380527697 -0.02380769642996396
leaf_weight=669.92056168111958 430.89750742890465 47.115037608557031 59.355651802063221 88.032870204217033 268.81871242902707 416.4205823946395
leaf_count=1541175 220461 152313 202803 220688 17136 67921
internal_value=0 0.00882215 0.0201911 0.0339636 -0.0116244 -0.017803
internal_weight=0 1549.66 1086.13 757.953 328.174 463.536
internal_count=2422497 2202036 1981802 1761863 219939 220234
is_linear=0
shrinkage=0.03


Tree=5
num_leaves=7
num_cat=0
split_feature=1 13 15 3 3 10
split_gain=3154.47 1175.18 588.776 114.011 88.314 52.5628
threshold=0.14633558690547946 1.0000000180025095e-35 1.0000000180025095e-35 0.51814328134059917 0.62465870380401622 1.0000000180025095e-35
decision_type=2 2 2 2 2 2
left_child=1 2 5 -3 -4 -1
right_child=-2 3 4 -5 -6 -7
leaf_value=0.052800435360402159 0.059178593618330153 -0.056434892866663894 -0.028737463498656732 -0.032244683161149132 0.042028387912866512 0.021066467044959226
leaf_weight=174.03931916281726 560.3497795325311 529.03359131977777 206.64308656784124 270.04231714111665 16.312997117638588 66.857516327436315
leaf_count=1054050 927553 80358 127963 57437 11376 163760
internal_value=0 -0.026283 0.0116858 -0.0483105 -0.0233952 0.0441166
internal_weight=0 1262.93 463.853 799.076 222.956 240.897
internal_count=2422497 1494944 1357149 137795 139339 1217810
is_linear=0
shrinkage=0.03


Tree=6
num_leaves=7
num_cat=0
split_feature=5 1 16 1 8 15
split_gain=876.03 670.555 1540.07 423.962 855.197 98.3897
threshold=0.023664122447371486 0.14975337684154513 1.0000000180025095e-35 0.14633558690547946 1.0000000180025095e-35 1.0000000180025095e-35
decision_type=2 2 2 2 2 2
left_child=5 3 -3 4 -2 -1
right_child=1 2 -4 -5 -6 -7
leaf_value=-0.050331654476049453 0.040528475965608241 0.057684311341192659 -0.023281104930558825 -0.054246363329641854 -0.041529185151350817 0.005866714630082784
leaf_weight=290.25208145861689 236.06773560823785 544.04633403629123 344.72639511070156 171.54502932878677 219.74076155840885 30.806823312334018
leaf_count=27286 1285911 806526 67113 18498 151532 65631
internal_value=0 0.00953948 0.0262896 -0.0141944 0.000964978 -0.0449377
internal_weight=0 1516.13 888.773 627.354 455.808 321.059
internal_count=2422497 2329580 873639 1455941 1437443 92917
is_linear=0
shrinkage=0.03


Tree=7
num_leaves=7
num_cat=0
split_feature=9 14 15 3 3 1
split_gain=1434.2 764.565 321.621 214.83 203.416 184.485
threshold=1.0000000180025095e-35 1.0000000180025095e-35 1.0000000180025095e-35 0.62465870380401622 0.51814328134059917 0.14975337684154513
decision_type=2 2 2 2 2 2
left_child=1 2 -1 -4 -3 -2
right_child=5 4 3 -5 -6 -7
leaf_value=0.049812541687952377 0.022792807163538372 -0.034859058176758544 0.054559570859161695 -0.035857961562856422 0.0062218426585318159 -0.03645684127750097
leaf_weight=580.74468515539047 50.09311321718269 168.89156170362548 33.867228584218537 72.568369328291737 299.43629833676096 694.4544796176051
leaf_count=1762070 129261 91517 202197 18133 128402 90917
internal_value=0 0.020916 0.0410394 -0.00684755 -0.00863574 -0.0324453
internal_weight=0 1155.51 687.18 106.436 468.328 744.548
internal_count=2422497 2202319 1982400 220330 219919 220178
is_linear=0
shrinkage=0.03


Tree=8
num_leaves=7
num_cat=0
split_feature=10 1 13 11 1 6
split_gain=1664.91 744.025 362.064 948.51 344.429 93.4801
threshold=1.0000000180025095e-35 0.31343969702720648 1.0000000180025095e-35 1.0000000180025095e-35 0.14633558690547946 1.0000000180025095e-35
decision_type=2 2 2 2 2 2
left_child=1 -1 3 -3 -2 -4
right_child=4 2 5 -5 -6 -7
leaf_value=0.044156546461125615 -0.051634397554522392 0.058731231010162178 -0.044456043743563614 -0.023423165082202609 0.028084297466762848 -0.010893145166484939
leaf_weight=563.30741424043663 499.49212610571703 234.97230946798663 141.45894093764946 271.73308265287778 53.416695759631693 158.8272417706321
leaf_count=1895237 163760 217235 7239 63116 56602 19308
internal_value=0 0.0177309 -0.000746926 0.0147146 -0.043896 -0.026799
internal_weight=0 1370.3 806.992 506.705 552.909 300.286
internal_count=2422497 2202135 306898 280351 220362 26547
is_linear=0
shrinkage=0.03


Tree=9
num_leaves=7
num_cat=0
split_feature=8 17 1 6 3 1
split_gain=859.073 311.852 436.103 461.094 181.336 144.477
threshold=1.0000000180025095e-35 1.0000000180025095e-35 0.31343969702720648 1.0000000180025095e-35 0.77936464548110973 0.14292948693037036
decision_type=2 2 2 2 2 2
left_child=1 2 4 -4 -1 -3
right_child=-2 5 3 -5 -6 -7
leaf_value=0.042474393041670666 -0.030696534030225976 0.035497366046208435 -0.023294142920020612 0.028538579519202432 0.0046473856408697943 -0.057707723813879633
leaf_weight=504.56175658399297 576.79614937696897 17.876993492856855 359.21579437805485 269.42190689132258 147.62810868593806 75.669877261141664
leaf_count=1641837 220234 201461 123457 162523 53758 19227
internal_value=0 0.0128956 0.0167657 -0.0010696 0.0339322 -0.039709
internal_weight=0 1374.37 1280.83 628.638 652.19 93.5469
internal_count=2422497 2202263 1981575 285980 1695595 220688
is_linear=0
shrinkage=0.03


Tree=10
num_leaves=7
num_cat=0
split_feature=14 7 1 15 3 3
split_gain=1315.6 1586.46 186.896 143.196 130.119 103.435
threshold=1.0000000180025095e-35 1.0000000180025095e-35 0.14292948693037036 1.0000000180025095e-35 0.77936464548110973 0.51814328134059917
decision_type=2 2 2 2 2 2
left_child=1 3 -2 -1 5 -4
right_child=2 -3 4 -5 -6 -7
leaf_value=0.046982648396301625 0.04855301917841974 -0.03101853930585919 0.046583924204045613 0.011240905257454184 0.028227038402091141 -0.038656943181254635
leaf_weight=727.29722107682028 24.416763323926716 390.70106884325651 12.256327848015642 117.96874350732105 27.914557204770972 673.45633426316635
leaf_count=1761787 82162 220461 57593 220330 10990 69174
internal_value=0 0.018921 -0.0316688 0.0420136 -0.0344777 -0.0370677
internal_weight=0 1235.97 738.044 845.266 713.627 685.713
internal_count=2422497 2202578 219919 1982117 137757 126767
is_linear=0
shrinkage=0.03


Tree=11
num_leaves=7
num_cat=0
split_feature=11 12 1 13 1 4
split_gain=1816.32 533.999 422.58 310.209 269.885 242.079
threshold=1.0000000180025095e-35 1.0000000180025095e-35 0.31343969702720648 1.0000000180025095e-35 0.14975337684154513 4.6499998569488534
decision_type=2 2 2 2 2 2
left_child=1 3 4 -1 -2 -3
right_child=2 5 -4 -5 -6 -7
leaf_value=0.050090380540109412 0.052591216177502141 -0.014895671903169238 0.058810490334003818 0.006032226602452383 -0.04356304359402232 0.05533394082825286
leaf_weight=563.10691468483128 26.452841307487688 317.92200524881628 40.159922420905787 193.45107311201718 719.3544371893222 50.282672718552931
leaf_count=1762434 79631 137291 63116 220119 77192 82714
internal_value=0 0.0244425 -0.0349651 0.0388476 -0.0400867 -0.0051811
internal_weight=0 1124.76 785.967 756.558 745.807 368.205
internal_count=2422497 2202558 219939 1982553 156823 220005
is_linear=0
shrinkage=0.03


Tree=12
num_leaves=7
num_cat=0
split_feature=1 16 9 3 3 2
split_gain=3674.43 979.126 1092.74 95.4522 76.7921 44.1108
threshold=0.14633558690547946 1.0000000180025095e-35 1.0000000180025095e-35 0.51814328134059917 0.373610869050026 0.00040737183007877325
decision_type=2 2 2 2 2 2
left_child=1 2 -1 -4 -3 -6
right_child=-2 4 3 -5 5 -7
leaf_value=0.05824949211571414 0.059152518494928051 0.045146562260063021 -0.048193268191277325 -0.0114574951114135 -0.057300011518032899 -0.034670558675882784
leaf_weight=188.33782806280942 618.21450865197403 6.3549022758234051 178.50120735229575 99.840227661421522 606.98784256287036 95.48364438288263
leaf_count=1221494 927553 62371 81063 46411 75604 8001
internal_value=0 -0.031133 0.00261441 -0.0351044 -0.053324 -0.0542778
internal_weight=0 1175.51 466.679 278.341 708.826 702.471
internal_count=2422497 1494944 1348968 127474 145976 83605
is_linear=0
shrinkage=0.03


Tree=13
num_leaves=7
num_cat=0
split_feature=10 12 16 17 4 1
split_gain=1282.51 567.473 797.176 349.654 334.111 185.181
threshold=1.0000000180025095e-35 1.0000000180025095e-35 1.0000000180025095e-35 1.0000000180025095e-35 4.6499998569488534 0.31343969702720648
decision_type=2 2 2 2 2 2
left_child=1 2 3 -1 -3 -2
right_child=5 4 -4 -5 -6 -7
leaf_value=0.053139546445056175 -0.043607463063077896 0.054971888781430035 -0.015270703838867266 -0.017072391495635452 -0.027922029553407546 0.048404372864331677
leaf_weight=598.33106668651453 495.50799682312936 50.034520167100709 270.71035838821263 70.974509127347119 307.9434169450833 19.703129433386493
leaf_count=1541180 207300 137291 220262 220688 82714 13062
internal_value=0 0.0158964 0.0281294 0.0456798 -0.0162151 -0.0400017
internal_weight=0 1297.99 940.016 669.306 357.978 515.211
internal_count=2422497 2202135 1982130 1761868 220005 220362
is_linear=0
shrinkage=0.03


Tree=14
num_leaves=7
num_cat=0
split_feature=14 11 10 1 6 3
split_gain=1041.99 1031.72 329.829 317.442 155.333 139.588
threshold=1.0000000180025095e-35 1.0000000180025095e-35 1.0000000180025095e-35 0.15146020054817202 1.0000000180025095e-35 0.77936464548110973
decision_type=2 2 2 2 2 2
left_child=1 2 -1 -2 -5 -3
right_child=3 5 -4 4 -6 -7
leaf_value=0.044060555090160061 -0.046533430429972669 -0.024023815163404339 -0.0096507960558981157 0.029546364056011479 -0.025693671972667281 0.056528258585602509
leaf_weight=682.51741302249138 423.32261576392921 436.19815396121703 120.75269936220866 87.225740846275585 94.304310654653818 19.329265456690337
leaf_count=1762277 87246 202803 220362 113103 19570 17136
internal_value=0 0.0155479 0.0359844 -0.0323299 0.000865787 -0.0204894
internal_weight=0 1258.8 803.27 604.853 181.53 455.527
internal_count=2422497 2202578 1982639 219919 132673 219939
is_linear=0
shrinkage=0.03


Tree=15
num_leaves=7
num_cat=0
split_feature=9 1 15 8 3 1
split_gain=1324.3 240.436 221.303 245.737 397.683 163.016
threshold=1.0000000180025095e-35 0.14975337684154513 1.0000000180025095e-35 1.0000000180025095e-35 0.77936464548110973 0.30910205841064459
decision_type=2 2 2 2 2 2
left_child=2 -2 3 4 -1 -5
right_child=1 -3 -4 5 -6 -7
leaf_value=0.048861248870267514 0.049475430153116742 -0.036396225970109594 -0.0087084278357340873 0.049395506495214139 -0.0062112276217393776 -0.0087522125132036728
leaf_weight=504.75599988968315 29.858475026863744 663.87533454840013 199.6151250480616 52.671673771459609 153.64995686167822 225.59253300835553
leaf_count=1704628 129261 90917 220330 186601 57127 33633
internal_value=0 -0.0326344 0.0199354 0.0260425 0.0360192 0.00239183
internal_weight=0 693.734 1136.29 936.67 658.406 278.264
internal_count=2422497 220178 2202319 1981989 1761755 220234
is_linear=0
shrinkage=0.03


Tree=16
num_leaves=7
num_cat=0
split_feature=13 3 14 1 1 8
split_gain=1780.56 546.92 607.165 469.341 385.07 252.773
threshold=1.0000000180025095e-35 0.51814328134059917 1.0000000180025095e-35 0.31343969702720648 0.14292948693037036 1.0000000180025095e-35
decision_type=2 2 2 2 2 2
left_child=1 2 5 4 -2 -1
right_child=3 -3 -4 -5 -6 -7
leaf_value=0.042962447674309817 0.038471160400617314 0.045922053068652526 -0.040950521417667411 0.059734604410376535 -0.050212359061674532 -0.011966446999307505
leaf_weight=243.55631483304751 46.822226670090458 528.91338944869494 184.79208038555225 41.129801460177987 602.02840642281808 108.47857934575586
leaf_count=1248258 135632 714510 91517 26547 57940 148093
internal_value=0 0.0243012 0.00295334 -0.0375164 -0.0437634 0.0260503
internal_weight=0 1065.74 536.827 689.98 648.851 352.035
internal_count=2422497 2202378 1487868 220119 193572 1396351
is_linear=0
shrinkage=0.03


Tree=17
num_leaves=7
num_cat=0
split_feature=12 8 1 4 1 1
split_gain=600.025 1159.76 340.079 293.737 176.824 138.018
threshold=1.0000000180025095e-35 1.0000000180025095e-35 0.30076837539672857 4.6499998569488534 0.14800114184617999 0.14458588510751727
decision_type=2 2 2 2 2 2
left_child=1 -1 4 5 -3 -2
right_child=3 2 -4 -5 -6 -7
leaf_value=0.03176728466692872 0.0481203169075647 0.03804235791887562 0.033658897113791372 0.048628655451960823 -0.047696564770856924 -0.033511964398079554
leaf_weight=845.66875160890777 18.464810538789607 22.505250510701444 62.824808573030168 44.570048959853011 316.85819389285462 534.05545567073568
leaf_count=1982258 56450 152313 34680 82714 33241 80841
internal_value=0 0.0118333 -0.0300561 -0.0247088 -0.0419156 -0.0307019
internal_weight=0 1247.86 402.188 597.09 339.363 552.52
internal_count=2422497 2202492 220234 220005 185554 137291
is_linear=0
shrinkage=0.03


Tree=18
num_leaves=7
num_cat=0
split_feature=12 7 4 13 1 3
split_gain=866.641 833.277 448.459 201.692 139.198 109.59
threshold=1.0000000180025095e-35 1.0000000180025095e-35 4.6499998569488534 1.0000000180025095e-35 0.30910205841064459 0.51814328134059917
decision_type=2 2 2 2 2 2
left_child=1 3 -2 4 -1 -3
right_child=2 5 -4 -5 -6 -7
leaf_value=0.026938495266673999 0.047864596590832365 -0.0022234460653129348 -0.038679007465140851 0.0042987333951747834 0.05558814695892407 -0.038790582816288582
leaf_weight=499.81828662312182 59.06254110604641 109.26149045774946 534.81612653609773 245.15286934928008 221.77675443831686 226.84016162386979
leaf_count=1512179 137291 189387 82714 220119 249733 31074
internal_value=0 0.0136902 -0.0300061 0.0278308 0.0358085 -0.026945
internal_weight=0 1302.85 593.879 966.748 721.595 336.102
internal_count=2422497 2202492 220005 1982031 1761912 220461
is_linear=0
shrinkage=0.03


Tree=19
num_leaves=7
num_cat=0
split_feature=3 3 13 1 1 1
split_gain=309.69 262.272 229.019 133.837 95.2259 217.991
threshold=0.51814328134059917 0.77936464548110973 1.0000000180025095e-35 0.30479583144187933 0.31343969702720648 0.30910205841064459
decision_type=2 2 2 2 2 2
left_child=4 2 3 -2 5 -1
right_child=1 -3 -4 -5 -6 -7
leaf_value=0.024018995541399357 -0.0014667929508222803 0.039555596289693906 0.046780486974240552 -0.020879010268486056 0.043361712747384228 -0.049875859660472269
leaf_weight=233.07571952928993 558.38053959177341 102.71493759817531 60.259578996585333 747.12273053779791 136.65718260139693 41.485861681692768
leaf_count=1424931 531941 71418 86470 116862 185360 5515
internal_value=0 -0.00644603 -0.00993208 -0.0125836 0.0229788 0.0127131
internal_weight=0 1468.48 1365.76 1305.5 411.219 274.562
internal_count=2422497 806691 735273 648803 1615806 1430446
is_linear=0
shrinkage=0.03


Tree=20
num_leaves=7
num_cat=0
split_feature=3 13 6 12 8 8
split_gain=501.249 785.87 327.748 808.694 272.013 158.439
threshold=0.51814328134059917 1.0000000180025095e-35 1.0000000180025095e-35 1.0000000180025095e-35 1.0000000180025095e-35 1.0000000180025095e-35
decision_type=2 2 2 2 2 2
left_child=2 4 3 -1 -2 -4
right_child=1 -3 5 -5 -6 -7
leaf_value=0.041602769944207724 0.051622513318749848 -0.021971538849557673 -0.033220586845493442 -0.044714366209778846 0.00076706480610545097 0.049189661524100266
leaf_weight=234.20886183411494 394.13911652195384 292.65908823418431 523.95114389084483 166.08813014024054 124.51702697690052 21.014224638041924
leaf_count=1390931 642369 92181 110601 94631 72141 19643
internal_value=0 0.0172867 -0.0148397 0.00576655 0.0394383 -0.0299585
internal_weight=0 811.315 945.262 400.297 518.656 544.965
internal_count=2422497 806691 1615806 1485562 714510 130244
is_linear=0
shrinkage=0.03


Tree=21
num_leaves=7
num_cat=0
split_feature=3 1 1 17 10 16
split_gain=1866.19 201.253 262.993 156.571 144.387 166.946
threshold=0.77936464548110973 0.14975337684154513 0.30910205841064459 1.0000000180025095e-35 1.0000000180025095e-35 1.0000000180025095e-35
decision_type=2 2 2 2 2 2
left_child=3 -2 -3 4 5 -1
right_child=1 2 -4 -5 -6 -7
leaf_value=0.040226448755152362 -0.051321042972833561 0.053233706414519882 -0.028328311635521537 -0.017211121309961719 -0.0041801922714337124 0.0045092377026954671
leaf_weight=695.35209893541469 362.38307926281414 38.426122855133144 370.53534212362138 66.731708744642674 98.481787614626228 142.0805121120502
leaf_count=1693571 33953 23412 14053 220688 219884 216936
internal_value=0 -0.0350561 -0.0205536 0.026977 0.0301427 0.0341792
internal_weight=0 771.345 408.961 1002.65 935.914 837.433
internal_count=2422497 71418 37465 2351079 2130391 1910507
is_linear=0
shrinkage=0.03


Tree=22
num_leaves=7
num_cat=0
split_feature=1 3 12 1 14 9
split_gain=1150.9 643.454 851.233 427.135 356.599 145.016
threshold=0.30910205841064459 0.77936464548110973 1.0000000180025095e-35 0.14458588510751727 1.0000000180025095e-35 1.0000000180025095e-35
decision_type=2 2 2 2 2 2
left_child=1 2 5 -4 -3 -1
right_child=-2 4 3 -5 -6 -7
leaf_value=0.034455269409791968 0.050652113701748054 0.045507358904190637 -0.046145278062929326 0.052496354275927519 -0.044763729604591046 0.0012456757457523829
leaf_weight=432.59401483258262 329.11475360613258 42.009090100073081 305.54712041148741 44.504959090721968 491.92374433016812 162.86833390456741
leaf_count=1677789 329370 43581 84195 90316 13784 183462
internal_value=0 -0.0112946 0.00357825 -0.0334904 -0.0375895 0.0253892
internal_weight=0 1479.45 945.514 350.052 533.933 595.462
internal_count=2422497 2093127 2035762 174511 57365 1861251
is_linear=0
shrinkage=0.03


Tree=23
num_leaves=7
num_cat=0
split_feature=3 4 15 11 1 2
split_gain=846.846 313.497 302.811 327.555 292.461 210.287
threshold=0.51814328134059917 4.4500000476837167 1.0000000180025095e-35 1.0000000180025095e-35 0.45146355032920843 2.6850900212593846e-05
decision_type=2 2 2 2 2 2
left_child=2 4 3 5 -2 -1
right_child=1 -3 -4 -5 -6 -7
leaf_value=0.020452952389929165 0.030390891893650383 0.04000166430367235 -0.04125874617464198 -0.04419211662335866 -0.024157108791175403 -0.01764035720569028
leaf_weight=313.44401453609316 169.53848571240087 443.19391700199049 336.29461327362515 159.52276456175605 182.80871255861712 221.90587569859053
leaf_count=903693 257482 533478 173503 89590 15731 449020
internal_value=0 0.0232393 -0.0179341 -0.00660275 0.00210142 0.00465959
internal_weight=0 795.541 1031.17 694.873 352.347 535.35
internal_count=2422497 806691 1615806 1442303 273213 1352713
is_linear=0
shrinkage=0.03


Tree=24
num_leaves=7
num_cat=0
split_feature=4 12 4 1 1 1
split_gain=342.8 292.931 236.519 170.867 208.707 83.6097
threshold=4.4500000476837167 1.0000000180025095e-35 4.6499998569488534 0.30910205841064459 0.31343969702720648 0.32694041728973394
decision_type=2 2 2 2 2 2
left_child=-1 3 5 -2 -5 -3
right_child=1 2 -4 4 -6 -7
leaf_value=0.02649563229073168 0.014942172431101554 -0.038789603350496547 0.045617678292548536 -0.053876669392697966 -0.0021848026850003286 0.049033067528227829
leaf_weight=354.28992082030891 481.65353816744755 338.56905003490101 34.020996370447392 79.498015914359712 555.47761347344203 9.2258553975407249
leaf_count=844577 1239421 53955 82714 5271 188332 8227
internal_value=0 -0.00627808 -0.0289245 0.00148451 -0.00873109 -0.0363261
internal_weight=0 1498.45 381.816 1116.63 634.976 347.795
internal_count=2422497 1577920 144896 1433024 193603 62182
is_linear=0
shrinkage=0.03


Tree=25
num_leaves=7
num_cat=0
split_feature=4 12 12 1 1 1
split_gain=1296.8 438.206 284.159 126.162 75.8643 73.2185
threshold=4.4500000476837167 1.0000000180025095e-35 1.0000000180025095e-35 0.34672605991363531 0.30910205841064459 0.13824703544378283
decision_type=2 2 2 2 2 2
left_child=1 -1 -2 -4 5 -3
right_child=2 4 3 -5 -6 -7
leaf_value=-0.0064721030661725291 0.039801769318697479 0.039351899541704698 0.019757806973214137 -0.028185426030309393 0.042050259295918165 -0.050135873905132418
leaf_weight=641.89135707828245 581.64825468280469 7.7111728253512402 108.80603160019382 88.799726057972293 7.8232958092848994 385.58698895471753
leaf_count=769468 1433024 29418 129087 15809 11475 34216
internal_value=0 -0.0218665 0.0292583 -0.00182028 -0.0464239 -0.048286
internal_weight=0 1043.01 779.254 197.606 401.121 393.298
internal_count=2422497 844577 1577920 144896 75109 63634
is_linear=0
shrinkage=0.03


Tree=26
num_leaves=7
num_cat=0
split_feature=1 4 3 12 15 3
split_gain=1111.45 523.205 449.721 311.836 103.12 47.928
threshold=0.30910205841064459 4.4500000476837167 0.51814328134059917 1.0000000180025095e-35 1.0000000180025095e-35 1.0000000180025095e-35
decision_type=2 2 2 2 2 2
left_child=1 -1 5 -4 -2 -3
right_child=4 2 3 -5 -6 -7
leaf_value=0.043615223610573593 0.051182466271669939 -0.046756741093386546 -0.027794572512512227 0.049976558544334283 -0.0042442655658218352 0.03733886449383484
leaf_weight=135.23728200598271 336.03126940247603 5.5751393527389146 1078.2831752695056 47.594089371836162 33.023226204531966 128.33904482571234
leaf_count=732063 309498 256638 375272 65612 19872 663542
internal_value=0 -0.0122531 -0.0182803 -0.0244655 0.0462248 0.0335172
internal_weight=0 1395.03 1259.79 1125.88 369.054 133.914
internal_count=2422497 2093127 1361064 440884 329370 920180
is_linear=0
shrinkage=0.03


Tree=27
num_leaves=7
num_cat=0
split_feature=12 6 4 3 1 2
split_gain=350.925 623.101 344.707 170.318 106.765 93.3168
threshold=1.0000000180025095e-35 1.0000000180025095e-35 4.4500000476837167 0.51814328134059917 0.14800114184617999 -0.00013227692397776988
decision_type=2 2 2 2 2 2
left_child=1 3 -3 5 -2 -1
right_child=4 2 -4 -5 -6 -7
leaf_value=-0.028140905321916172 0.03763142782280085 0.053015725980648562 -0.018210160916887087 0.045969781948644858 -0.027599102463611642 0.02048960837477606
leaf_weight=39.796481309909723 23.096863100006885 66.54919809664716 647.72336188084591 296.85075888545543 395.55608172517532 278.45374665661802
leaf_count=90534 91851 67424 125983 618154 128154 1300397
internal_value=0 0.0075451 -0.0115092 0.0296542 -0.0239193 0.0143394
internal_weight=0 1329.37 714.273 615.101 418.653 318.25
internal_count=2422497 2202492 193407 2009085 220005 1390931
is_linear=0
shrinkage=0.03


Tree=28
num_leaves=7
num_cat=0
split_feature=4 6 1 7 12 7
split_gain=735.462 200.42 270.944 349.55 121.028 111.988
threshold=4.4500000476837167 1.0000000180025095e-35 0.30910205841064459 1.0000000180025095e-35 1.0000000180025095e-35 1.0000000180025095e-35
decision_type=2 2 2 2 2 2
left_child=4 2 3 -2 5 -1
right_child=1 -3 -4 -5 -6 -7
leaf_value=-0.021981378733044055 0.041629449730769222 0.054708946072944575 -0.010463831643797212 -0.026757805018658806 0.044287727520992554 0.041153246506301699
leaf_weight=873.62911555683968 350.84605933562125 130.36959345798823 252.43384045528364 82.433711101955851 26.088094398481189 25.146776321184007
leaf_count=695166 1209137 142462 91928 134393 75109 74302
internal_value=0 0.0207443 0.0142166 0.0285868 -0.0183071 -0.0201712
internal_weight=0 816.083 685.714 433.28 924.864 898.776
internal_count=2422497 1577920 1435458 1343530 844577 769468
is_linear=0
shrinkage=0.03


Tree=29
num_leaves=7
num_cat=0
split_feature=14 6 1 4 12 7
split_gain=387.574 257.882 457.213 394.353 190.767 61.5784
threshold=1.0000000180025095e-35 1.0000000180025095e-35 0.14800114184617999 4.4500000476837167 1.0000000180025095e-35 1.0000000180025095e-35
decision_type=2 2 2 2 2 2
left_child=1 2 4 -3 -1 -5
right_child=-2 3 -4 5 -6 -7
leaf_value=0.0024496778480097773 0.048011821705436372 0.053104331462491702 0.035180746724711789 -0.02291132533771148 -0.037520537535404797 0.052806441669716216
leaf_weight=331.94844543551153 138.5380549152469 67.677822293713689 329.18248090701672 755.84291390809813 157.83578461193247 8.8779415827884787
leaf_count=1327291 219919 70025 584554 121318 91851 7539
internal_value=0 -0.00405448 0.0078931 -0.0158046 -0.0104812 -0.0219645
internal_weight=0 1651.37 818.967 832.399 489.784 764.721
internal_count=2422497 2202578 2003696 198882 1419142 128857
is_linear=0
shrinkage=0.03


Tree=30
num_leaves=7
num_cat=0
split_feature=14 4 6 1 1 1
split_gain=594.07 358.185 253.93 230.445 181.079 157.708
threshold=1.0000000180025095e-35 4.4500000476837167 1.0000000180025095e-35 0.30479583144187933 0.14292948693037036 0.30910205841064459
decision_type=2 2 2 2 2 2
left_child=1 2 -1 4 -2 -3
right_child=3 5 -4 -5 -6 -7
leaf_value=0.022112139278716896 0.029719645560156938 0.019373860152324448 -0.021042745396282581 0.021740536330821097 -0.037057704531161244 0.054417214484428107
leaf_weight=192.14001834088413 38.89176744184806 448.31806033299654 335.65679339745839 83.228202589350985 469.65186202002224 155.80637328719604
leaf_count=707616 82162 1242091 70025 50288 87469 182846
internal_value=0 0.0127322 -0.00532046 -0.0243341 -0.0319025 0.0284867
internal_weight=0 1131.92 527.797 591.772 508.544 604.124
internal_count=2422497 2202578 777641 219919 169631 1424937
is_linear=0
shrinkage=0.03


Tree=31
num_leaves=7
num_cat=0
split_feature=6 3 3 14 7 3
split_gain=386.576 226.954 250.186 129.351 120.05 152.827
threshold=1.0000000180025095e-35 0.77936464548110973 0.62465870380401622 1.0000000180025095e-35 1.0000000180025095e-35 0.77936464548110973
decision_type=2 2 2 2 2 2
left_child=1 2 -1 -4 5 -2
right_child=4 -3 3 -5 -6 -7
leaf_value=-0.0082043586235967022 0.04853153421017406 -0.027221025798205345 0.042347272172384605 -0.00078641316812677912 -0.0087999847749785504 -0.0016109494385650866
leaf_weight=807.78431893623201 219.28339979481825 368.24909892703727 159.08664769153984 102.66305698709039 65.226063825415622 72.696263541380176
leaf_count=1834559 198738 63077 252059 54350 11373 8341
internal_value=0 -0.0069428 5.80591e-05 0.0254908 0.0278867 0.0360843
internal_weight=0 1437.78 1069.53 261.75 357.206 291.98
internal_count=2422497 2204045 2140968 306409 218452 207079
is_linear=0
shrinkage=0.03


Tree=32
num_leaves=7
num_cat=0
split_feature=1 12 11 4 3 3
split_gain=404.793 284.643 281.462 173.404 118.457 134.906
threshold=0.30910205841064459 1.0000000180025095e-35 1.0000000180025095e-35 4.6499998569488534 0.77936464548110973 0.51814328134059917
decision_type=2 2 2 2 2 2
left_child=1 -1 4 -3 5 -2
right_child=2 3 -4 -5 -6 -7
leaf_value=0.03181784151002616 0.0030805720458759529 0.044656049004429675 0.040321497620218916 -0.025731499537014712 0.055697445936684693 -0.0235987248471306
leaf_weight=450.34048250809428 221.49453758540039 38.4893972157588 86.200159199361224 155.3567870597326 19.401007423919509 737.9619347419648
leaf_count=1907850 164187 115999 64574 69278 8991 91618
internal_value=0 0.0187555 -0.011351 -0.0115981 -0.0159379 -0.0174429
internal_weight=0 644.187 1065.06 193.846 978.857 959.456
internal_count=2422497 2093127 329370 185277 264796 255805
is_linear=0
shrinkage=0.03


Tree=33
num_leaves=7
num_cat=0
split_feature=11 4 3 3 8 12
split_gain=1248.56 296.004 191.604 135.658 161.514 160.715
threshold=1.0000000180025095e-35 4.4500000476837167 0.77936464548110973 0.62465870380401622 1.0000000180025095e-35 1.0000000180025095e-35
decision_type=2 2 2 2 2 2
left_child=3 -2 -3 4 -1 -5
right_child=1 2 -4 5 -6 -7
leaf_value=0.042722642482053978 0.05223006520228142 -0.039624357715845618 0.054430126761391577 0.0037599903274248055 0.0037968274803256061 0.052590532709481136
leaf_weight=358.13045453999075 34.76668728167715 609.98534875101177 19.297754549887031 452.8783853926725 131.18769471267296 69.079650845436845
leaf_count=1674552 73172 132964 13803 262427 193042 72537
internal_value=0 -0.0319329 -0.0366583 0.0209795 0.0323155 0.0103108
internal_weight=0 664.05 629.283 1011.28 489.318 521.958
internal_count=2422497 219939 146767 2202558 1867594 334964
is_linear=0
shrinkage=0.03


Tree=34
num_leaves=7
num_cat=0
split_feature=12 3 4 11 1 3
split_gain=1374.99 349.568 310.71 271.478 150.631 144.962
threshold=1.0000000180025095e-35 0.77936464548110973 4.6499998569488534 1.0000000180025095e-35 0.30910205841064459 0.62465870380401622
decision_type=2 2 2 2 2 2
left_child=1 4 5 -3 -1 -2
right_child=2 3 -4 -5 -6 -7
leaf_value=0.021722104980955483 0.033355837568467897 0.057322702224657511 0.047954850971282104 -0.028073730932575664 0.049260779459122495 -0.041261672893663524
leaf_weight=527.53970162825135 23.657221242770902 40.410139632600476 39.016518780219485 175.01667466023355 272.04528080060845 607.4377627405047
leaf_count=1861251 95768 41422 82714 17136 282683 41523
internal_value=0 0.0220113 -0.0333234 -0.0118641 0.0311415 -0.0384162
internal_weight=0 1015.01 670.112 215.427 799.585 631.095
internal_count=2422497 2202492 220005 58558 2143934 137291
is_linear=0
shrinkage=0.03


Tree=35
num_leaves=7
num_cat=0
split_feature=6 12 4 3 0 8
split_gain=338.33 621.044 272.314 136.65 157.586 117.312
threshold=1.0000000180025095e-35 1.0000000180025095e-35 4.6499998569488534 0.51814328134059917 -1.0000000180025095e-35 1.0000000180025095e-35
decision_type=2 2 2 2 2 2
left_child=1 -1 -3 4 -2 -5
right_child=3 2 -4 5 -6 -7
leaf_value=0.02935823773341999 -0.032317441633008516 0.047775855160750336 -0.037991208052232973 -0.023055932581889642 0.027699374199834127 0.056097536635904534
leaf_weight=614.63086669164477 56.590805849147728 38.146018668441684 226.80200761817105 600.10971539285674 123.6960502906295 16.41128740287968
leaf_count=2009085 22812 121653 73307 78743 107432 9465
internal_value=0 0.0128207 -0.0255096 -0.0141508 0.00878616 -0.0208615
internal_weight=0 879.579 264.948 796.808 180.287 616.521
internal_count=2422497 2204045 194960 218452 130244 88208
is_linear=0
shrinkage=0.03


Tree=36
num_leaves=7
num_cat=0
split_feature=3 15 3 3 14 1
split_gain=366.131 116.076 154.21 122.063 157.452 97.7496
threshold=0.62465870380401622 1.0000000180025095e-35 0.51814328134059917 0.373610869050026 1.0000000180025095e-35 0.15146020054817202
decision_type=2 2 2 2 2 2
left_child=1 3 -3 -1 -5 -4
right_child=-2 2 5 4 -6 -7
leaf_value=-0.016007462276913239 0.022371839807996962 0.024006643789469741 0.025819050595939853 0.012315588763815326 -0.023935941406366193 -0.046871017223920973
leaf_weight=453.21189201207017 480.24096400311828 41.382829452340957 17.875243583373958 492.1471850816888 137.02921524077829 164.77022626248072
leaf_count=925255 416528 173503 18588 784769 93748 10106
internal_value=0 -0.00823475 -0.027841 -0.00415478 0.00439486 -0.0396551
internal_weight=0 1306.42 224.028 1082.39 629.176 182.645
internal_count=2422497 2005969 202197 1803772 878517 28694
is_linear=0
shrinkage=0.03


Tree=37
num_leaves=7
num_cat=0
split_feature=11 4 3 3 7 3
split_gain=513.186 408.19 268.508 212.508 124.099 127.114
threshold=1.0000000180025095e-35 4.4500000476837167 0.77936464548110973 0.62465870380401622 1.0000000180025095e-35 0.51814328134059917
decision_type=2 2 2 2 2 2
left_child=2 3 4 -2 5 -1
right_child=1 -3 -4 -5 -6 -7
leaf_value=0.0091752764530536306 0.041568227315283 0.027090491995874492 -0.017792943355627571 -0.04731817988232348 -0.0098377198446894607 0.03194929976798716
leaf_weight=431.75748659241071 25.270796942044399 99.279168762630434 251.83025746064231 345.89731821487658 136.33786408616288 452.37223360009375
leaf_count=1336829 50752 146767 54282 22420 220461 590986
internal_value=0 -0.0267387 0.0099002 -0.041171 0.016745 0.0208507
internal_weight=0 470.447 1272.3 371.168 1020.47 884.13
internal_count=2422497 219939 2202558 73172 2148276 1927815
is_linear=0
shrinkage=0.03


Tree=38
num_leaves=7
num_cat=0
split_feature=11 1 3 12 3 3
split_gain=282.999 337.996 137.339 120.674 371.57 267.398
threshold=1.0000000180025095e-35 0.30910205841064459 0.77936464548110973 1.0000000180025095e-35 0.62465870380401622 0.62465870380401622
decision_type=2 2 2 2 2 2
left_child=2 -2 3 5 -5 -1
right_child=1 -3 -4 4 -6 -7
leaf_value=0.02331420612856137 0.041083430141551601 -0.034718808756360145 0.055190033138922706 -0.036821777884893131 0.041901534280304638 -0.0072065638382772454
leaf_weight=557.30286139114469 62.270149003510596 326.60110591912235 49.243070149008418 182.40156510981615 75.515776121756062 480.18521257896646
leaf_count=1720126 155365 64574 54282 147468 59677 221005
internal_value=0 -0.0225063 0.0065207 0.00462946 -0.0136995 0.00919481
internal_weight=0 388.871 1344.65 1295.41 257.917 1037.49
internal_count=2422497 219939 2202558 2148276 207145 1941131
is_linear=0
shrinkage=0.03


Tree=39
num_leaves=7
num_cat=0
split_feature=12 3 3 4 3 6
split_gain=1614.49 624.267 175.14 126.852 98.1748 80.5686
threshold=1.0000000180025095e-35 0.77936464548110973 0.62465870380401622 4.6499998569488534 1.0000000180025095e-35 1.0000000180025095e-35
decision_type=2 2 2 2 2 2
left_child=1 4 -2 5 -1 -4
right_child=2 -3 3 -5 -6 -7
leaf_value=-0.048179545277820784 0.040280605609901349 -0.015547363164264603 -0.04443547175752114 0.0014277526175656757 0.039819827056655863 0.05141577961103095
leaf_weight=10.789700307010206 25.434187732673308 260.45129321138666 578.7801279828127 63.549958932460868 722.67598905324121 7.2095952657400622
leaf_count=429120 147468 58558 36817 31014 1714814 4706
internal_value=0 0.0243073 -0.0357762 -0.0388117 0.0384615 -0.0431706
internal_weight=0 993.917 674.974 649.54 733.466 585.99
internal_count=2422497 2202492 220005 72537 2143934 41523
is_linear=0
shrinkage=0.03


Tree=40
num_leaves=7
num_cat=0
split_feature=3 3 4 8 12 16
split_gain=853.719 160.75 100.064 94.9835 70.7808 61.8871
threshold=0.62465870380401622 0.51814328134059917 4.4500000476837167 1.0000000180025095e-35 1.0000000180025095e-35 1.0000000180025095e-35
decision_type=2 2 2 2 2 2
left_child=1 2 -1 -2 -3 -4
right_child=3 4 5 -5 -6 -7
leaf_value=0.027136153076424745 0.0460410800204928 -0.021671147945252 0.00063683187777324008 0.002287991253743659 0.040347734164514877 -0.023593341182684625
leaf_weight=103.09248990092601 323.98106112037931 734.11586387980788 404.46313816742622 51.893731200878392 16.055548954274855 122.92184877978434
leaf_count=571364 389336 349530 943303 27192 40633 101139
internal_value=0 -0.010917 0.00025203 0.0400226 -0.0202918 -0.00504465
internal_weight=0 1380.65 630.477 375.875 750.171 527.385
internal_count=2422497 2005969 1615806 416528 390163 1044442
is_linear=0
shrinkage=0.03


Tree=41
num_leaves=7
num_cat=0
split_feature=3 1 16 4 9 3
split_gain=1391.09 672.756 319.146 257.196 249.199 122.091
threshold=0.62465870380401622 0.15146020054817202 1.0000000180025095e-35 4.4500000476837167 1.0000000180025095e-35 0.77936464548110973
decision_type=2 2 2 2 2 2
left_child=-1 3 4 -2 -3 -5
right_child=1 2 -4 5 -6 -7
leaf_value=0.043783155891950067 0.04450977516560195 0.037484975586887348 -0.026597658830153956 -0.042736122229216453 -0.023802764565535067 0.055313509249265133
leaf_weight=467.69350259780185 32.489478875810164 279.51222642151697 158.58378020902455 633.68738208951254 75.112550836493028 10.820487244753165
leaf_count=2005969 69293 176618 10320 118512 14624 27161
internal_value=0 -0.017227 0.00867109 -0.0368433 0.0244733 -0.0410069
internal_weight=0 1190.21 513.209 676.997 354.625 644.508
internal_count=2422497 416528 201562 214966 191242 145673
is_linear=0
shrinkage=0.03


Tree=42
num_leaves=7
num_cat=0
split_feature=3 1 3 11 3 4
split_gain=473.674 461.915 236.534 220.654 172.692 151.93
threshold=0.62465870380401622 0.34167163074016577 0.77936464548110973 1.0000000180025095e-35 0.51814328134059917 4.4500000476837167
decision_type=2 2 2 2 2 2
left_child=4 2 3 -2 5 -1
right_child=1 -3 -4 -5 -6 -7
leaf_value=-0.007546190360409908 -0.013296987564785116 0.036545721657658001 0.042565705494752942 -0.045868941183681934 0.041672725666250965 0.024189237366860791
leaf_weight=257.3129804940254 473.33655905986961 139.39427337750385 46.836284320779669 309.97096465702634 201.09502704949409 285.55630457858933
leaf_count=571364 247385 60130 60310 48703 390163 1044442
internal_value=0 -0.0138111 -0.0223006 -0.0262284 0.017993 0.00916084
internal_weight=0 969.538 830.144 783.308 743.964 542.869
internal_count=2422497 416528 356398 296088 2005969 1615806
is_linear=0
shrinkage=0.03


Tree=43
num_leaves=7
num_cat=0
split_feature=12 3 3 4 6 1
split_gain=792.436 520.651 319.774 118.017 95.1661 91.8659
threshold=1.0000000180025095e-35 0.62465870380401622 0.77936464548110973 4.4500000476837167 1.0000000180025095e-35 0.14292948693037036
decision_type=2 2 2 2 2 2
left_child=2 -2 3 -1 5 -4
right_child=1 -3 4 -5 -6 -7
leaf_value=0.040533297978018246 -0.046726834345751152 0.040406067141933948 0.0510000628298019 0.015057389395819742 0.053149523244948933 -0.026075137889697252
leaf_weight=208.57591331510048 395.2662940626542 72.30969921698852 13.896897247570449 759.66737552322593 15.45743210922228 230.20889779798745
leaf_count=757082 147468 72537 27593 1386852 6890 24075
internal_value=0 -0.0331944 0.0126579 0.0205815 -0.0168648 -0.0214971
internal_weight=0 467.576 1227.81 968.243 259.563 244.106
internal_count=2422497 220005 2202492 2143934 58558 51668
is_linear=0
shrinkage=0.03


Tree=44
num_leaves=7
num_cat=0
split_feature=11 6 3 1 3 3
split_gain=568.81 361.356 198.396 237.278 136.062 92.6057
threshold=1.0000000180025095e-35 1.0000000180025095e-35 0.62465870380401622 0.1548116356134415 0.77936464548110973 0.51814328134059917
decision_type=2 2 2 2 2 2
left_child=2 4 -1 -4 5 -2
right_child=1 -3 3 -5 -6 -7
leaf_value=0.021148911908315356 0.033134549648714713 0.048679802515631851 0.044445193673514821 -0.010309918916054725 0.049680563294703335 -0.045267782794085942
leaf_weight=682.51770100771682 13.398658001839065 46.664257037060452 81.879168900108198 505.78569546288054 14.212216815460122 362.77850407117512
leaf_count=1867594 74520 36853 187790 147174 14290 94276
internal_value=0 -0.0294811 0.0101593 -0.00261836 -0.0389244 -0.0423948
internal_weight=0 437.054 1270.18 587.665 390.389 376.177
internal_count=2422497 219939 2202558 334964 183086 168796
is_linear=0
shrinkage=0.03


Tree=45
num_leaves=7
num_cat=0
split_feature=11 1 4 3 1 4
split_gain=478.974 164.545 324.253 157.199 155.304 167.805
threshold=1.0000000180025095e-35 0.14458588510751727 4.4500000476837167 0.77936464548110973 0.1548116356134415 4.4500000476837167
decision_type=2 2 2 2 2 2
left_child=4 3 -3 -2 5 -1
right_child=1 2 -4 -5 -6 -7
leaf_value=-0.022309774958840293 0.040810363683874862 -0.034303400018986623 0.045128921630498177 -0.055122115077968256 0.016899700552129936 0.012634690514497752
leaf_weight=240.22022695821215 16.036986839884776 147.40167268904042 66.225345890998142 186.15881673715194 818.66585779847082 252.87625615071738
leaf_count=514955 70937 47703 95282 6017 742753 944850
internal_value=0 -0.0280171 -0.00958348 -0.0473499 0.00889589 -0.00439979
internal_weight=0 415.823 213.627 202.196 1311.76 493.096
internal_count=2422497 219939 142985 76954 2202558 1459805
is_linear=0
shrinkage=0.03


Tree=46
num_leaves=7
num_cat=0
split_feature=11 3 3 4 5 16
split_gain=496.632 233.956 177.918 92.8084 68.7115 50.1418
threshold=1.0000000180025095e-35 0.62465870380401622 0.62465870380401622 4.4500000476837167 0.34580153226852423 1.0000000180025095e-35
decision_type=2 2 2 2 2 2
left_child=2 -2 5 -3 -5 -1
right_child=1 3 -4 4 -6 -7
leaf_value=0.0064443444493623818 0.03516446992288675 0.046025073637825452 0.029543202125488523 -0.038690551715474114 0.016501824499250722 -0.012253652036279235
leaf_weight=785.49230825140694 49.24557851573627 12.026524153305216 310.63876576017356 389.53319844431826 20.882793961936841 153.46811943750799
leaf_count=1678349 138375 22420 334964 50560 8584 189245
internal_value=0 -0.0261958 0.0099012 -0.0334149 -0.035849 0.00337847
internal_weight=0 471.688 1249.6 422.443 410.416 938.96
internal_count=2422497 219939 2202558 81564 59144 1867594
is_linear=0
shrinkage=0.03


Tree=47
num_leaves=7
num_cat=0
split_feature=9 11 4 5 3 3
split_gain=179.237 207.091 159.284 182.828 119.113 94.9532
threshold=1.0000000180025095e-35 1.0000000180025095e-35 4.4500000476837167 0.34580153226852423 0.62465870380401622 0.77936464548110973
decision_type=2 2 2 2 2 2
left_child=1 -1 4 -4 -3 -2
right_child=5 2 3 -5 -6 -7
leaf_value=0.010653406328106074 -0.0084848490890499419 -0.044445560182328071 0.041790699285367369 -0.024640734965944808 0.042776283659964359 -0.04287680655770975
leaf_weight=1112.7461117611892 213.8542415289412 154.08199859141314 67.939839947532164 80.239874283361132 14.712065220068324 108.63546644055168
leaf_count=1982380 213984 50752 130041 16726 22420 6194
internal_value=0 0.00455982 -0.0167981 0.00589379 -0.0366362 -0.020167
internal_weight=0 1429.72 316.974 148.18 168.794 322.49
internal_count=2422497 2202319 219939 146767 73172 220178
is_linear=0
shrinkage=0.03


Tree=48
num_leaves=7
num_cat=0
split_feature=11 9 16 1 3 1
split_gain=477.078 73.6124 84.1139 86.0011 70.4137 72.3559
threshold=1.0000000180025095e-35 1.0000000180025095e-35 1.0000000180025095e-35 0.14458588510751727 0.51814328134059917 0.17869233340024951
decision_type=2 2 2 2 2 2
left_child=1 2 3 -1 -2 -6
right_child=4 -3 -4 -5 5 -7
leaf_value=0.022861867881092793 0.020596248027201145 0.034674935316423044 0.038665819408303263 0.0014747798788986174 -0.045184235233189506 -0.019663031827294862
leaf_weight=207.72844332754175 27.89871789974859 97.045080121097271 72.561175869734143 894.78125959494355 147.95340272843896 314.40782525067334
leaf_count=1136154 89590 220178 220262 625964 57246 73103
internal_value=0 0.00969041 0.00759929 0.00552148 -0.025113 -0.0279096
internal_weight=0 1272.12 1175.07 1102.51 490.26 462.361
internal_count=2422497 2202558 1982380 1762118 219939 130349
is_linear=0
shrinkage=0.03


Tree=49
num_leaves=7
num_cat=0
split_feature=3 12 3 0 4 3
split_gain=208.742 197.25 163.824 132.014 121.798 120.217
threshold=0.62465870380401622 1.0000000180025095e-35 0.373610869050026 1.7513626517029483e-05 4.5499999523162851 0.77936464548110973
decision_type=2 2 2 2 2 2
left_child=2 5 3 -1 -4 -2
right_child=1 -3 4 -5 -6 -7
leaf_value=0.035451851835933419 0.041534300670138448 -0.0080434002930370799 0.0036142194714317896 -0.053225801494733049 -0.018238990493687431 0.0055054461203735026
leaf_weight=115.96014035041298 227.65004773781402 212.24458834006509 338.66706677463662 16.447138634001021 709.43640743655851 131.70348744311923
leaf_count=725739 285433 72537 462709 309350 508171 58558
internal_value=0 0.0148659 -0.0072045 0.0241202 -0.011181 0.0283816
internal_weight=0 571.598 1180.51 132.407 1048.1 359.354
internal_count=2422497 416528 2005969 1035089 970880 343991
is_linear=0
shrinkage=0.03


Tree=50
num_leaves=7
num_cat=0
split_feature=3 4 1 1 6 11
split_gain=1327.98 1053.64 331.953 287.069 361.873 96.8907
threshold=0.62465870380401622 4.4500000476837167 0.1548116356134415 0.34167163074016577 1.0000000180025095e-35 1.0000000180025095e-35
decision_type=2 2 2 2 2 2
left_child=-1 2 -2 -3 -5 -4
right_child=1 3 5 4 -6 -7
leaf_value=0.039327027562086107 -0.050909049734755081 0.046876520259595933 0.039848675160161773 -0.023923085884610715 0.051666541422455615 -0.022684026150572197
leaf_weight=524.13432212115003 574.04876480188977 174.13697654570569 48.079436667321716 197.35569222384947 78.985991738678422 39.983624823435093
leaf_count=2005969 70371 245604 44514 15500 26607 13932
internal_value=0 -0.0185454 -0.0426008 0.0168272 -0.00220912 0.0115208
internal_weight=0 1112.59 662.112 450.479 276.342 88.0631
internal_count=2422497 416528 128817 287711 42107 58446
is_linear=0
shrinkage=0.03


Tree=51
num_leaves=7
num_cat=0
split_feature=6 3 3 0 4 3
split_gain=277.223 289.267 226.006 144.485 122.65 98.1794
threshold=1.0000000180025095e-35 0.373610869050026 0.62465870380401622 -1.0000000180025095e-35 4.4500000476837167 0.373610869050026
decision_type=2 2 2 2 2 2
left_child=1 3 5 -1 -4 -2
right_child=2 -3 4 -5 -6 -7
leaf_value=-0.06008253813846904 -0.0092422620183894664 0.021060498343501224 0.045259992063470103 -0.0045065763398315943 -0.027111090997450283 0.026686407009172183
leaf_weight=53.809451974360854 131.50350186081778 686.93455205209466 21.098087676480645 182.39295131777908 512.84251196855621 140.89339384440973
leaf_count=131590 74039 1242995 14371 829460 32671 97371
internal_value=0 0.0112199 -0.0128431 -0.0173673 -0.0241722 0.00937097
internal_weight=0 923.137 806.337 236.202 533.941 272.397
internal_count=2422497 2204045 218452 961050 47042 171410
is_linear=0
shrinkage=0.03


Tree=52
num_leaves=7
num_cat=0
split_feature=4 1 3 1 1 3
split_gain=291.904 569.899 238.476 205.472 117.807 121.536
threshold=4.5499999523162851 0.1548116356134415 0.62465870380401622 0.34167163074016577 0.45146355032920843 0.62465870380401622
decision_type=2 2 2 2 2 2
left_child=3 2 -2 -1 5 -5
right_child=1 -3 -4 4 -6 -7
leaf_value=0.0038778837807200935 0.025740633008503662 0.04102418823853092 -0.027118338317724647 -0.0059627234816551564 -0.0027599987333600043 -0.045164962315854935
leaf_weight=448.15144907627109 107.21232608677383 361.07091531242622 264.34954972383275 100.54576904993155 161.06162497396872 245.47995954185899
leaf_count=1044433 673860 460501 118473 55759 54077 15394
internal_value=0 0.014235 -0.011838 -0.0109212 -0.0239822 -0.0338239
internal_weight=0 732.633 371.562 955.239 507.087 346.026
internal_count=2422497 1252834 792333 1169663 125230 71153
is_linear=0
shrinkage=0.03


Tree=53
num_leaves=7
num_cat=0
split_feature=4 1 16 3 3 1
split_gain=641.636 265.653 121.593 68.0524 55.5811 53.2746
threshold=4.5499999523162851 0.15843661874532702 1.0000000180025095e-35 0.373610869050026 0.51814328134059917 0.24824669212102893
decision_type=2 2 2 2 2 2
left_child=5 -2 3 -3 -4 -1
right_child=1 2 4 -5 -6 -7
leaf_value=0.02425948789450012 0.024442455192395195 -0.024210620208270275 0.021845690166633444 -0.0053129766244551114 -0.037440092515174106 0.047347616470524601
leaf_weight=198.09426490272017 179.52863405412063 223.97858971815731 14.562420408983597 725.29970759627759 223.75919723935658 170.88265439739916
leaf_count=936938 802258 131478 25280 281992 11826 232725
internal_value=0 -0.00947875 -0.0146228 -0.00979259 -0.0337413 0.0350513
internal_weight=0 1367.13 1187.6 949.278 238.322 368.977
internal_count=2422497 1252834 450576 413470 37106 1169663
is_linear=0
shrinkage=0.03


Tree=54
num_leaves=7
num_cat=0
split_feature=4 1 1 1 11 3
split_gain=569.452 321.744 250.474 125.676 139.064 118.538
threshold=4.5499999523162851 0.24824669212102893 0.15843661874532702 0.1548116356134415 1.0000000180025095e-35 0.373610869050026
decision_type=2 2 2 2 2 2
left_child=1 -1 3 4 -2 -3
right_child=2 5 -4 -5 -6 -7
leaf_value=0.015583803456405726 0.020879349930935508 0.024550839888144677 0.037695025582393231 -0.045149515190565058 -0.035596942363567738 -0.025818398777280222
leaf_weight=255.59822527701908 187.14497575137648 43.759580654237652 379.44507581495418 44.817580153299787 48.621834577235859 755.5095915657439
leaf_count=936938 749916 79875 450576 9925 42417 152850
internal_value=0 -0.0136705 0.0218359 0.000331402 0.00913118 -0.0230335
internal_weight=0 1054.87 660.029 280.584 235.767 799.269
internal_count=2422497 1169663 1252834 802258 792333 232725
is_linear=0
shrinkage=0.03


Tree=55
num_leaves=7
num_cat=0
split_feature=4 1 7 3 11 3
split_gain=375.792 190.124 120.961 94.4688 57.8254 72.7782
threshold=4.5499999523162851 0.23387550562620166 1.0000000180025095e-35 0.373610869050026 1.0000000180025095e-35 0.77936464548110973
decision_type=2 2 2 2 2 2
left_child=2 4 -1 -3 -2 -6
right_child=1 3 -4 -5 5 -7
leaf_value=0.029914832357406933 0.014438495675817309 0.032789749239381209 -0.0093902155617895909 -0.017865872892606008 0.031715092956284052 -0.035059840824428021
leaf_weight=388.53382411263738 321.42878901032964 33.554045762299211 85.533143012602523 868.3589576271188 19.879975840318366 49.172491856792476
leaf_count=1063257 907210 88982 106406 192544 58354 5744
internal_value=0 -0.00838127 0.0228184 -0.0159471 0.00908998 -0.0156573
internal_weight=0 1292.39 474.067 901.913 390.481 69.0525
internal_count=2422497 1252834 1169663 281526 971308 64098
is_linear=0
shrinkage=0.03


Tree=56
num_leaves=7
num_cat=0
split_feature=4 4 1 3 3 12
split_gain=277.902 385.65 235.082 222.956 206.494 256.843
threshold=4.5499999523162851 4.4500000476837167 0.1548116356134415 0.373610869050026 0.373610869050026 1.0000000180025095e-35
decision_type=2 2 2 2 2 2
left_child=1 3 -3 -1 -2 -6
right_child=4 2 -4 -5 5 -7
leaf_value=-0.015406225654532774 -0.010789832711968813 -0.039672844899606742 0.00036440637361677094 0.029835618537230567 0.035291471704292719 -0.014977320960238561
leaf_weight=161.18334494771261 215.38377698425029 384.3726322915827 200.71198394287785 247.30450096416462 407.36080580488488 117.26441905328829
leaf_count=375086 515632 207597 117489 469491 641146 96056
internal_value=0 -0.0103619 -0.025961 0.0119898 0.0139076 0.0240483
internal_weight=0 993.572 585.085 408.488 740.009 524.625
internal_count=2422497 1169663 325086 844577 1252834 737202
is_linear=0
shrinkage=0.03


Tree=57
num_leaves=7
num_cat=0
split_feature=3 1 4 16 3 11
split_gain=921.497 751.669 386.073 375.665 254.087 126.941
threshold=0.62465870380401622 0.14975337684154513 4.5499999523162851 1.0000000180025095e-35 0.51814328134059917 1.0000000180025095e-35
decision_type=2 2 2 2 2 2
left_child=1 2 -1 5 -4 -3
right_child=-2 3 4 -5 -6 -7
leaf_value=0.037967313336052695 0.040186504143263725 0.035489167912021342 0.004604097943085356 -0.024047185958152032 -0.050349886409195591 -0.004697176922710866
leaf_weight=58.83871951472247 390.89228574896697 334.64414006357401 88.887145806133049 185.56809843391238 504.17286788269121 89.36227631867223
leaf_count=638666 416528 553888 547070 62449 115384 88512
internal_value=0 -0.0124746 -0.034844 0.011466 -0.0421196 0.0270285
internal_weight=0 1261.47 651.899 609.575 593.06 424.006
internal_count=2422497 2005969 1301120 704849 662454 642400
is_linear=0
shrinkage=0.03


Tree=58
num_leaves=7
num_cat=0
split_feature=14 3 1 1 1 4
split_gain=512.928 251.61 179.217 447.82 156.609 138.273
threshold=1.0000000180025095e-35 0.62465870380401622 0.24824669212102893 0.15843661874532702 0.34167163074016577 4.5499999523162851
decision_type=2 2 2 2 2 2
left_child=2 -2 3 -1 -3 -5
right_child=1 4 -4 5 -6 -7
leaf_value=0.030813257804089285 0.041787241058398532 -0.038098225079634097 0.023400903464326817 0.014033060796507842 0.029517454521304207 -0.028990078904016406
leaf_weight=257.51516205185908 43.762302569630265 404.63701708900771 536.02991669969924 84.782678197210771 32.643650638812687 314.48671494127484
leaf_count=1469845 142663 64858 413681 155279 12398 163773
internal_value=0 -0.026119 0.0105464 3.57307e-05 -0.0329948 -0.0198421
internal_weight=0 481.043 1192.81 656.785 437.281 399.269
internal_count=2422497 219919 2202578 1788897 77256 319052
is_linear=0
shrinkage=0.03


Tree=59
num_leaves=7
num_cat=0
split_feature=12 1 1 14 1 4
split_gain=190.382 141.802 135.748 112.803 239.231 164.623
threshold=1.0000000180025095e-35 0.15843661874532702 0.23664729297161105 1.0000000180025095e-35 0.14800114184617999 4.4500000476837167
decision_type=2 2 2 2 2 2
left_child=1 3 -3 4 -1 -5
right_child=-2 2 -4 5 -6 -7
leaf_value=0.0096495102804572512 0.046283485830529887 0.031829083860900706 0.00021947531540444947 -0.049719760020047875 -0.036984213556084763 0.035850955653894512
leaf_weight=290.14141388456483 75.45984598427458 139.84654485747888 927.46516970222001 126.83465281386452 149.06312847284426 23.291695861291373
leaf_count=1327304 220005 281374 459260 27934 42968 63652
internal_value=0 -0.00213486 0.0043871 -0.0139339 -0.00622573 -0.0362943
internal_weight=0 1656.64 1067.31 589.331 439.205 150.126
internal_count=2422497 2202492 740634 1461858 1370272 91586
is_linear=0
shrinkage=0.03


Tree=60
num_leaves=7
num_cat=0
split_feature=1 3 3 4 1 12
split_gain=409.287 285.673 431.878 194.69 137.072 134.065
threshold=0.23664729297161105 0.62465870380401622 0.51814328134059917 4.4500000476837167 0.14800114184617999 1.0000000180025095e-35
decision_type=2 2 2 2 2 2
left_child=1 2 -1 5 -3 -2
right_child=3 4 -4 -5 -6 -7
leaf_value=0.017786439036163993 0.011561350797662091 0.037575355601312553 -0.036146408152615168 0.03154517565755819 -0.0037064085042315827 -0.032959960235216454
leaf_weight=177.69415454960108 229.73742652602959 115.95035534970521 531.62825619099021 393.47782670767629 189.56990456231142 81.687086950740195
leaf_count=1309822 157688 211257 290798 346969 83315 22648
internal_value=0 -0.012193 -0.0226295 0.0175465 0.0120322 -0.00018477
internal_weight=0 1014.84 709.322 704.902 305.52 311.425
internal_count=2422497 1895192 1600620 527305 294572 180336
is_linear=0
shrinkage=0.03


Tree=61
num_leaves=7
num_cat=0
split_feature=9 1 4 13 1 4
split_gain=1527.62 305.459 210.366 191.561 189.896 141.553
threshold=1.0000000180025095e-35 0.14458588510751727 4.5499999523162851 1.0000000180025095e-35 0.14128511399030688 4.5499999523162851
decision_type=2 2 2 2 2 2
left_child=2 5 -1 -4 -5 -2
right_child=1 -3 3 4 -6 -7
leaf_value=0.041802493058457443 0.034879129744320121 -0.0012079396925218945 0.021318026343046505 -0.039791462617626852 0.032522971511410481 -0.052320065410662954
leaf_weight=340.44082533341862 16.7437365300284 161.09634318065218 535.27143571460329 102.44401732817641 46.893882913325797 449.49394463087083
leaf_count=1050486 68906 93597 1042256 67343 42234 57675
internal_value=0 -0.0368384 0.0225591 0.0129428 -0.0170186 -0.0491206
internal_weight=0 627.334 1025.05 684.609 149.338 466.238
internal_count=2422497 220178 2202319 1151833 109577 126581
is_linear=0
shrinkage=0.03


Tree=62
num_leaves=7
num_cat=0
split_feature=4 1 14 13 5 3
split_gain=846.929 461.537 147.397 123.359 98.01 87.0044
threshold=4.5499999523162851 0.24824669212102893 1.0000000180025095e-35 1.0000000180025095e-35 0.31679388880729681 0.77936464548110973
decision_type=2 2 2 2 2 2
left_child=1 2 5 -2 -3 -1
right_child=3 4 -4 -5 -6 -7
leaf_value=-0.032089989067360949 0.036196686651808627 0.025380864079064949 0.045451409184960496 0.00012262627607009341 -0.0073779143432130493 0.045168592536446069
leaf_weight=725.14198561191006 467.63428117454896 219.83646060434694 22.742490215052385 104.31070106296102 130.34229994259658 12.523823990457457
leaf_count=861431 1143257 179416 61369 109577 53309 14138
internal_value=0 -0.0152718 -0.0283841 0.0296292 0.0132012 -0.0307189
internal_weight=0 1110.59 760.408 571.945 350.179 737.666
internal_count=2422497 1169663 936938 1252834 232725 875569
is_linear=0
shrinkage=0.03


Tree=63
num_leaves=7
num_cat=0
split_feature=3 4 13 3 1 3
split_gain=512.233 289.045 91.1427 85.6282 46.451 46.3878
threshold=0.62465870380401622 4.4500000476837167 1.0000000180025095e-35 0.51814328134059917 0.040661811828613288 1.0000000180025095e-35
decision_type=2 2 2 2 2 2
left_child=3 -2 4 5 -3 -1
right_child=1 2 -4 -5 -6 -7
leaf_value=-0.046057297311653062 0.032965678630405469 -0.044747064989149113 0.039113629999363096 0.03753623022471337 -0.018494338607283514 0.015089305944441894
leaf_weight=10.49468621775304 107.16500988940243 65.230364920425927 22.820282073022099 189.21303003375942 816.41170667170081 461.129136856689
leaf_count=442560 128817 36678 29107 390163 221926 1173246
internal_value=0 -0.0134143 -0.0189399 0.0205242 -0.0204852 0.0136341
internal_weight=0 1011.63 904.462 660.837 881.642 471.624
internal_count=2422497 416528 287711 2005969 258604 1615806
is_linear=0
shrinkage=0.03


Tree=64
num_leaves=7
num_cat=0
split_feature=1 3 3 14 4 3
split_gain=361.543 323.555 235.449 221.407 181.301 102.519
threshold=0.23664729297161105 0.51814328134059917 0.77936464548110973 1.0000000180025095e-35 4.5499999523162851 0.62465870380401622
decision_type=2 2 2 2 2 2
left_child=3 -2 -3 -1 5 -5
right_child=1 2 -4 4 -6 -7
leaf_value=0.034710124611496029 0.021959653751624422 -0.020473816791944256 0.055266017077571457 -0.044353624037595935 0.04211824468143479 0.044364816966885906
leaf_weight=342.6757407306286 237.64925931190373 872.62482472191914 37.627115763330949 84.579465565147984 40.95944672555197 12.760581601876764
leaf_count=1757211 305984 198595 22726 38819 79277 19885
internal_value=0 -0.00914875 -0.0172857 0.0218082 -0.0101796 -0.0323904
internal_weight=0 1147.9 910.252 480.975 138.299 97.34
internal_count=2422497 527305 221321 1895192 137981 58704
is_linear=0
shrinkage=0.03


Tree=65
num_leaves=7
num_cat=0
split_feature=15 14 3 4 3 1
split_gain=235.256 318.043 155.354 132.657 115.477 112.967
threshold=1.0000000180025095e-35 1.0000000180025095e-35 0.77936464548110973 4.5499999523162851 0.51814328134059917 0.15843661874532702
decision_type=2 2 2 2 2 2
left_child=1 2 4 -2 -1 -3
right_child=3 5 -4 -5 -6 -7
leaf_value=0.0083331364921142622 0.030805337611714681 0.022685247459670939 -0.013078000991320352 -0.034727330289491987 0.030013389545922576 -0.025751107068438493
leaf_weight=496.84600018332276 30.973922329139896 49.301411560016277 171.71477088367101 222.0512480859179 399.01354656131298 320.37294502655277
leaf_count=1350786 105865 91586 50467 114465 580995 128333
internal_value=0 0.00470086 0.0130039 -0.0266155 0.0180122 -0.0192476
internal_weight=0 1437.25 1067.57 253.025 895.86 369.674
internal_count=2422497 2202167 1982248 220330 1931781 219919
is_linear=0
shrinkage=0.03


Tree=66
num_leaves=7
num_cat=0
split_feature=1 4 1 3 11 14
split_gain=559.073 374.048 232.874 201.27 106.49 115.731
threshold=0.1548116356134415 4.4500000476837167 0.14128511399030688 0.62465870380401622 1.0000000180025095e-35 1.0000000180025095e-35
decision_type=2 2 2 2 2 2
left_child=1 3 -3 -1 5 -2
right_child=4 2 -4 -5 -6 -7
leaf_value=0.018871163319174652 0.0086959225233073437 0.027628106818957839 -0.02763290255983953 -0.043533113284109359 0.04683691461488082 0.047783753914638058
leaf_weight=52.011718251196726 778.23105920133094 183.72285649346304 108.24798277361697 402.34566775392159 87.01380269008223 73.824010920856381
leaf_count=471828 612194 950033 49897 70371 137615 130559
internal_value=0 -0.0193674 0.00711574 -0.0363637 0.0153965 0.0121346
internal_weight=0 746.328 291.971 454.357 939.069 852.055
internal_count=2422497 1542129 999930 542199 880368 742753
is_linear=0
shrinkage=0.03


Tree=67
num_leaves=7
num_cat=0
split_feature=14 11 3 1 6 3
split_gain=499.695 510.554 214.868 147.328 132.592 89.7301
threshold=1.0000000180025095e-35 1.0000000180025095e-35 0.62465870380401622 0.23387550562620166 1.0000000180025095e-35 0.62465870380401622
decision_type=2 2 2 2 2 2
left_child=1 -1 3 -2 -4 -3
right_child=2 5 4 -5 -6 -7
leaf_value=0.023052830107458976 -0.046745101625277549 0.0079405800872235678 0.031569202377742391 0.025379226608879063 -0.027481390515464395 -0.027246492861692399
leaf_weight=836.07231854057318 288.17238048894797 83.9509874220239 73.925174717966001 27.331011200047215 62.017040701670339 285.51734560781915
leaf_count=1982639 87844 138375 70413 54819 6843 81564
internal_value=0 0.0100824 -0.0268869 -0.0404368 0.00462627 -0.0192514
internal_weight=0 1205.54 451.446 315.503 135.942 369.468
internal_count=2422497 2202578 219919 142663 77256 219939
is_linear=0
shrinkage=0.03


Tree=68
num_leaves=7
num_cat=0
split_feature=14 1 13 3 3 17
split_gain=1086.37 372.656 286.443 187.667 124.725 97.412
threshold=1.0000000180025095e-35 0.23664729297161105 1.0000000180025095e-35 0.62465870380401622 0.62465870380401622 1.0000000180025095e-35
decision_type=2 2 2 2 2 2
left_child=2 3 5 -2 -4 -1
right_child=1 -3 4 -5 -6 -7
leaf_value=0.028453411461517884 0.044227343739447207 0.03492835272613623 0.017039333915289504 -0.04717324564428739 -0.026781927688052248 -0.018124032629804193
leaf_weight=780.93058190195734 20.381271621008636 61.130661241695634 91.847762002042145 463.8792310392455 157.23769113705202 41.961495705174457
leaf_count=1761771 88929 81938 171923 49052 48196 220688
internal_value=0 -0.0344334 0.0175345 -0.0432432 -0.0106198 0.0260592
internal_weight=0 545.391 1071.98 484.261 249.085 822.892
internal_count=2422497 219919 2202578 137981 220119 1982459
is_linear=0
shrinkage=0.03


Tree=69
num_leaves=7
num_cat=0
split_feature=3 4 4 11 1 1
split_gain=296.514 341.482 276.019 122.172 149.311 93.9413
threshold=0.62465870380401622 4.4500000476837167 4.4500000476837167 1.0000000180025095e-35 0.15843661874532702 0.24529127776622775
decision_type=2 2 2 2 2 2
left_child=1 -1 -2 4 -3 -5
right_child=2 3 -4 5 -6 -7
leaf_value=0.026891659687603486 -0.0056835663608476141 0.020776868200558764 0.040356085101719286 -0.04655141254269872 -0.01514501643425418 0.0014822631317376177
leaf_weight=210.62325938785943 208.80457523548102 121.79141529340995 265.4943637024553 158.92748179742193 687.76299722545809 47.458051241323119
leaf_count=715760 128817 828040 287711 51891 374546 35732
internal_value=0 -0.0077896 0.0201184 -0.014999 -0.00972187 -0.0355523
internal_weight=0 1226.56 474.299 1015.94 809.554 206.386
internal_count=2422497 2005969 416528 1290209 1202586 87623
is_linear=0
shrinkage=0.03


Tree=70
num_leaves=7
num_cat=0
split_feature=1 3 3 4 14 4
split_gain=517.916 337.87 329.804 225.304 129.823 112.858
threshold=0.14128511399030688 0.77936464548110973 0.62465870380401622 4.4500000476837167 1.0000000180025095e-35 4.4500000476837167
decision_type=2 2 2 2 2 2
left_child=2 3 -1 -2 5 -4
right_child=1 -3 4 -5 -6 -7
leaf_value=0.014038128162419075 0.005990843080413177 -0.01865038124422233 0.034810041969725126 0.038054161351003236 0.040210871767075891 -0.039088349298800167
leaf_weight=183.57072837185115 376.93348295048781 227.17552286235878 18.645627814956242 413.75542989137466 20.132626602979144 457.35667708861001
leaf_count=1261879 320861 39093 58210 596876 29127 116451
internal_value=0 0.0135364 -0.020261 0.022796 -0.0329544 -0.0361267
internal_weight=0 1017.86 679.706 790.689 496.135 476.002
internal_count=2422497 956830 1465667 917737 203788 174661
is_linear=0
shrinkage=0.03


Tree=71
num_leaves=7
num_cat=0
split_feature=3 4 3 11 3 15
split_gain=559.619 521.264 313.604 178.866 87.1106 84.7914
threshold=0.62465870380401622 4.5499999523162851 0.77936464548110973 1.0000000180025095e-35 0.51814328134059917 1.0000000180025095e-35
decision_type=2 2 2 2 2 2
left_child=4 -2 3 -3 5 -1
right_child=1 2 -4 -5 -6 -7
leaf_value=0.018694504964262164 0.038684428696894362 -0.031302881877980845 0.055203511743705552 0.031062702039714171 0.035905929068778 -0.014801875257829762
leaf_weight=410.25459586247598 140.03608392400929 753.43455697750323 42.165803900235915 43.014656821382232 219.88971570869035 80.712725820179912
leaf_count=1442303 187497 148476 45229 35326 390163 173503
internal_value=0 -0.0147093 -0.0236607 -0.0278999 0.0202428 0.013169
internal_weight=0 978.651 838.615 796.449 710.857 490.967
internal_count=2422497 416528 229031 183802 2005969 1615806
is_linear=0
shrinkage=0.03


Tree=72
num_leaves=7
num_cat=0
split_feature=3 13 4 1 1 3
split_gain=314.395 130.419 69.8297 370.941 364.978 51.9345
threshold=0.51814328134059917 1.0000000180025095e-35 4.5499999523162851 0.34167163074016577 0.23387550562620166 1.0000000180025095e-35
decision_type=2 2 2 2 2 2
left_child=5 2 3 -2 -4 -1
right_child=1 -3 4 -5 -6 -7
leaf_value=-0.044365389936705649 -0.024506463510136429 0.037413453784797303 0.043477850654941454 0.045910051818045867 -0.013936333644027772 0.025542254400294787
leaf_weight=8.935930618834389 559.5588495277043 55.629484538148972 125.47281352242862 75.586159032623982 468.85203303182789 374.55794318925473
leaf_count=442560 284174 92181 271497 46817 112022 1173246
internal_value=0 -0.00711592 -0.0091595 -0.0160675 -0.00176248 0.0238022
internal_weight=0 1285.1 1229.47 635.145 594.325 383.494
internal_count=2422497 806691 714510 330991 383519 1615806
is_linear=0
shrinkage=0.03


Tree=73
num_leaves=7
num_cat=0
split_feature=3 3 4 14 6 1
split_gain=320.757 533.23 259.602 159.569 221.768 126.792
threshold=0.51814328134059917 0.62465870380401622 4.5499999523162851 1.0000000180025095e-35 1.0000000180025095e-35 0.15843661874532702
decision_type=2 2 2 2 2 2
left_child=-1 3 5 4 -2 -3
right_child=1 2 -4 -5 -6 -7
leaf_value=0.022088091434388883 0.015216978728443778 0.046351433811619415 0.040896239884672919 -0.04576035096416467 -0.028954181304026848 -0.010844993042568083
leaf_weight=433.08065056103806 148.80671849368082 39.547761067551619 210.34202779026236 224.27922741811199 322.70979627984343 248.75178642001265
leaf_count=1615806 302400 101895 229031 51146 36617 85602
internal_value=0 -0.00802051 0.0156392 -0.0249743 -0.0150114 -0.00286592
internal_weight=0 1194.44 498.642 695.796 471.517 288.3
internal_count=2422497 806691 416528 390163 339017 187497
is_linear=0
shrinkage=0.03


Tree=74
num_leaves=7
num_cat=0
split_feature=3 1 11 4 9 3
split_gain=500.547 441.873 215.5 210.806 90.5125 85.5623
threshold=0.62465870380401622 0.23387550562620166 1.0000000180025095e-35 4.4500000476837167 1.0000000180025095e-35 0.373610869050026
decision_type=2 2 2 2 2 2
left_child=5 3 -3 -2 -5 -1
right_child=1 2 -4 4 -6 -7
leaf_value=0.0029505972407288406 0.041468244229239677 0.050290713823823094 -0.0082179742137134717 -0.031947369592998244 0.028883543734645186 0.025374044379239437
leaf_weight=219.17751317939837 38.54077342140954 116.40463819228171 109.02714434938389 653.55829396771878 22.039155558944913 509.61868106828479
leaf_count=1035089 92225 89098 34983 182731 17491 970880
internal_value=0 -0.0144658 0.0220824 -0.0260177 -0.0299232 0.0186437
internal_weight=0 939.57 225.432 714.138 675.597 728.796
internal_count=2422497 416528 124081 292447 200222 2005969
is_linear=0
shrinkage=0.03


Tree=75
num_leaves=7
num_cat=0
split_feature=1 9 3 14 4 3
split_gain=101.776 238.537 137.916 115.031 100.601 97.2874
threshold=0.30076837539672857 1.0000000180025095e-35 0.51814328134059917 1.0000000180025095e-35 4.5499999523162851 0.373610869050026
decision_type=2 2 2 2 2 2
left_child=1 2 -1 5 -3 -2
right_child=3 4 -4 -5 -6 -7
leaf_value=0.0019158312618149924 0.032874989271704708 0.028283703769338552 0.031334462077850747 -0.027406665270435629 -0.030516573427863434 -0.0047351719196869341
leaf_weight=267.32407169552607 67.10105293639208 30.476779522410652 308.77947121374746 190.00663029153657 159.42322149816027 678.91371470714512
leaf_count=1295039 102891 101385 592545 51891 85448 193298
internal_value=0 0.00810368 0.0177106 -0.0066333 -0.0209811 -0.00131281
internal_weight=0 766.004 576.104 936.021 189.9 746.015
internal_count=2422497 2074417 1887584 348080 186833 296189
is_linear=0
shrinkage=0.03


Tree=76
num_leaves=7
num_cat=0
split_feature=13 1 12 1 3 8
split_gain=1494.76 266.15 192.85 256.642 124.901 123.615
threshold=1.0000000180025095e-35 0.32216516137123113 1.0000000180025095e-35 0.16373974084854129 0.62465870380401622 1.0000000180025095e-35
decision_type=2 2 2 2 2 2
left_child=2 4 5 -4 -2 -1
right_child=1 -3 3 -5 -6 -7
leaf_value=0.033676468621502906 -0.0018402410841917233 0.014659745431634506 -0.03097826514315026 0.037296644697312177 -0.050859546641900885 0.007288410100495234
leaf_weight=656.3404388479612 52.094511284703913 74.188477893061645 128.60102422079217 79.23504372221214 464.42098902155703 211.93860837689135
leaf_count=1762139 152517 25020 103479 116526 42582 220234
internal_value=0 -0.0383073 0.0210438 -0.00489531 -0.0459287 0.0272512
internal_weight=0 590.704 1076.12 207.836 516.516 868.279
internal_count=2422497 220119 2202378 220005 195099 1982373
is_linear=0
shrinkage=0.03


Tree=77
num_leaves=7
num_cat=0
split_feature=9 12 1 1 4 3
split_gain=605.573 480.536 276.965 254.207 110.315 68.6758
threshold=1.0000000180025095e-35 1.0000000180025095e-35 0.24529127776622775 0.12906025350093844 4.4500000476837167 0.62465870380401622
decision_type=2 2 2 2 2 2
left_child=1 -1 -3 4 5 -2
right_child=3 2 -4 -5 -6 -7
leaf_value=0.021603329492776682 0.030939010159375537 0.044756117100313166 -0.033301987992896687 -0.0028129560954028628 0.014462466980602669 -0.058563853633546235
leaf_weight=921.42751558470627 7.3994735106243743 47.430721241769788 265.58142629467329 176.50016726695321 21.727014940857771 226.21604476661014
leaf_count=1982314 39470 156839 63166 102024 71161 7523
internal_value=0 0.0106985 -0.021369 -0.0305362 -0.0496136 -0.0556092
internal_weight=0 1234.44 313.012 431.843 255.343 233.616
internal_count=2422497 2202319 220005 220178 118154 46993
is_linear=0
shrinkage=0.03


Tree=78
num_leaves=7
num_cat=0
split_feature=12 1 1 9 5 4
split_gain=624.684 336.756 192.051 65.9397 70.1762 65.0022
threshold=1.0000000180025095e-35 0.23664729297161105 0.16025628894567492 1.0000000180025095e-35 0.30610686540603643 4.6499998569488534
decision_type=2 2 2 2 2 2
left_child=3 2 -2 4 -1 -4
right_child=1 -3 5 -5 -6 -7
leaf_value=0.0044624017600660669 0.03529713490458191 0.054258100492367137 -0.015003700890430623 0.033094588612334837 0.022297389653087182 -0.051822734536894316
leaf_weight=909.91490830164548 27.222344040055759 36.251747124821122 51.627416564944724 105.04441285214853 253.26176707845298 297.54682327971386
leaf_count=1478382 100888 68045 31732 220178 503932 19340
internal_value=0 -0.0320169 -0.040448 0.0104345 0.00836148 -0.0464372
internal_weight=0 412.648 376.397 1268.22 1163.18 349.174
internal_count=2422497 220005 151960 2202492 1982314 51072
is_linear=0
shrinkage=0.03


Tree=79
num_leaves=7
num_cat=0
split_feature=12 5 9 11 3 4
split_gain=232.501 165.169 179.21 116.555 102.565 76.5514
threshold=1.0000000180025095e-35 0.30916030704975134 1.0000000180025095e-35 1.0000000180025095e-35 0.77936464548110973 4.5499999523162851
decision_type=2 2 2 2 2 2
left_child=1 2 -1 5 -4 -3
right_child=-2 3 4 -5 -6 -7
leaf_value=0.02134211045339145 -0.02270403513288936 0.021340709882483204 0.0026572462434039028 -0.037830269732605296 -0.041339300114764145 -0.0090993035497712871
leaf_weight=646.66628411080455 327.11981117434334 99.013956695969682 187.47986268020031 97.570013988231949 62.906937441293849 288.83889129690942
leaf_count=1487005 220005 222081 202982 41598 6194 242632
internal_value=0 0.00538473 0.0130076 -0.00870003 -0.00851688 -0.00129345
internal_weight=0 1382.48 897.053 485.423 250.387 387.853
internal_count=2422497 2202492 1696181 506311 209176 464713
is_linear=0
shrinkage=0.03


Tree=80
num_leaves=7
num_cat=0
split_feature=12 1 4 5 15 3
split_gain=223.601 175.996 242.298 114.461 93.6966 93.2141
threshold=1.0000000180025095e-35 0.14128511399030688 4.5499999523162851 0.32442748546600347 1.0000000180025095e-35 0.51814328134059917
decision_type=2 2 2 2 2 2
left_child=1 2 5 -3 -4 -1
right_child=-2 3 4 -5 -6 -7
leaf_value=0.0077882810234684236 0.04823547792209943 0.00029283216343135859 0.026855660596264944 0.027086623782849328 -0.018259448670817732 -0.036995390020221945
leaf_weight=48.063338668594952 81.278986095167056 898.71771981454367 120.80624177101708 169.76270907219441 61.936524083052063 306.11227412700828
leaf_count=494108 220005 615392 636599 208273 70984 177136
internal_value=0 -0.0024706 -0.0164665 0.00457124 0.0115488 -0.0309132
internal_weight=0 1605.4 536.918 1068.48 182.743 354.176
internal_count=2422497 2202492 1378827 823665 707583 671244
is_linear=0
shrinkage=0.03


Tree=81
num_leaves=7
num_cat=0
split_feature=12 17 5 3 3 3
split_gain=561.252 341.955 252.934 92.381 85.5319 65.6896
threshold=1.0000000180025095e-35 1.0000000180025095e-35 0.35954198241233831 0.77936464548110973 0.373610869050026 0.62465870380401622
decision_type=2 2 2 2 2 2
left_child=1 2 -1 5 -4 -2
right_child=3 -3 4 -5 -6 -7
leaf_value=0.025341238982972775 0.0023002989405875424 -0.041073523349099257 -0.026370059837276461 0.049879624972477013 0.0047045408177329275 -0.035233660499268731
leaf_weight=749.98288731898356 46.943962197983637 104.92323907788523 114.41340133890481 12.173782391138955 257.01740188475378 385.50463451794349
leaf_count=1589904 147468 220688 129485 12860 262415 59677
internal_value=0 0.0104703 0.0153252 -0.0288374 -0.0049126 -0.0311633
internal_weight=0 1226.34 1121.41 444.622 371.431 432.449
internal_count=2422497 2202492 1981804 220005 391900 207145
is_linear=0
shrinkage=0.03


Tree=82
num_leaves=7
num_cat=0
split_feature=14 1 5 11 1 3
split_gain=384.662 328.358 158.099 126.526 108.624 166.175
threshold=1.0000000180025095e-35 0.15663917362689975 0.31221374869346624 1.0000000180025095e-35 0.30076837539672857 0.51814328134059917
decision_type=2 2 2 2 2 2
left_child=3 2 -2 -1 -5 -6
right_child=1 -3 -4 4 5 -7
leaf_value=0.012716125859403576 -0.053228242188364722 0.011737495159977148 0.033834264770357447 -0.023460822298858777 -0.028722183084985163 0.056874744034856282
leaf_weight=1016.4150614426326 232.41348973464483 133.71868791181623 19.747303123724123 181.49800028969184 36.48209700465668 44.037656282962416
leaf_count=1982639 32428 129437 58054 152515 27785 39639
internal_value=0 -0.0262122 -0.0463035 0.00792614 -0.0106328 0.0182157
internal_weight=0 385.879 252.161 1278.43 262.018 80.5198
internal_count=2422497 219919 90482 2202578 219939 67424
is_linear=0
shrinkage=0.03


Tree=83
num_leaves=7
num_cat=0
split_feature=4 14 1 1 4 6
split_gain=118.28 107.384 138.167 95.7696 145.821 86.3344
threshold=4.4500000476837167 1.0000000180025095e-35 0.15663917362689975 0.44268600642681127 4.5499999523162851 1.0000000180025095e-35
decision_type=2 2 2 2 2 2
left_child=-1 3 -3 -2 -5 -4
right_child=1 2 5 4 -6 -7
leaf_value=0.014492884292727609 0.0060709158786570721 -0.041179485440672098 0.022446610891803765 -0.03725190519863588 0.0034495087404513712 -0.028342479726147961
leaf_weight=389.96985506150668 727.20339158484421 143.36475736577268 73.935160186607391 134.70676184739568 189.96508734127565 49.373846630332991
leaf_count=844577 1353843 62857 76521 15034 56060 13605
internal_value=0 -0.00429411 -0.0212593 2.30434e-05 -0.0135001 0.00204587
internal_weight=0 1318.55 266.674 1051.88 324.672 123.309
internal_count=2422497 1577920 152983 1424937 71094 90126
is_linear=0
shrinkage=0.03


Tree=84
num_leaves=7
num_cat=0
split_feature=7 1 1 3 8 5
split_gain=71.1339 98.6557 62.7703 62.5603 84.6862 43.5879
threshold=1.0000000180025095e-35 0.19963427633047107 0.23387550562620166 0.62465870380401622 1.0000000180025095e-35 0.35496184229850775
decision_type=2 2 2 2 2 2
left_child=2 -2 3 -1 -5 -4
right_child=1 -3 5 4 -6 -7
leaf_value=0.0030295789997142799 -0.037097739559485386 0.0029557508353514768 -0.00480266229683389 0.035066587315400015 -0.013324955745430403 0.013127388438767099
leaf_weight=350.97014618264075 103.36102973069501 117.5498691485991 839.86966302254586 146.74765881175699 41.161638620658778 141.75840602267272
leaf_count=1406690 188914 31547 407109 262630 21800 103807
internal_value=0 -0.0158674 0.00231426 0.0105311 0.024452 -0.00220263
internal_weight=0 220.911 1520.51 538.879 187.909 981.628
internal_count=2422497 220461 2202036 1691120 284430 510916
is_linear=0
shrinkage=0.03


Tree=85
num_leaves=7
num_cat=0
split_feature=3 1 13 5 15 3
split_gain=211.337 186.151 71.6606 59.6247 56.4683 33.0249
threshold=0.62465870380401622 0.24529127776622775 1.0000000180025095e-35 0.30610686540603643 1.0000000180025095e-35 1.0000000180025095e-35
decision_type=2 2 2 2 2 2
left_child=3 2 4 5 -2 -1
right_child=1 -3 -4 -5 -6 -7
leaf_value=-0.042275595419243479 -0.016621579624283914 0.0086033354751196226 0.038863136831883652 -0.0020144109139342775 -0.039434862736764685 0.017228406997641277
leaf_weight=7.5981918921170282 447.58049811091769 318.13393056472705 17.2712256234081 218.96347495404189 125.29762599545938 567.10485655644152
leaf_count=379680 247076 115377 39067 410464 15008 1215825
internal_value=0 -0.00987696 -0.0198369 0.0113015 -0.0216712 0.0163696
internal_weight=0 908.283 590.149 793.667 572.878 574.703
internal_count=2422497 416528 301151 2005969 262084 1595505
is_linear=0
shrinkage=0.03


Tree=86
num_leaves=7
num_cat=0
split_feature=10 3 11 6 6 8
split_gain=66.6684 47.2663 64.5635 113.798 92.7285 52.8941
threshold=1.0000000180025095e-35 0.51814328134059917 1.0000000180025095e-35 1.0000000180025095e-35 1.0000000180025095e-35 1.0000000180025095e-35
decision_type=2 2 2 2 2 2
left_child=1 5 4 -4 -3 -1
right_child=-2 2 3 -5 -6 -7
leaf_value=0.00057004419579702943 -0.017182833825074604 0.0060900469959817953 0.027030706692758515 -0.021983889472547195 0.035950650878687304 -0.019181944324328844
leaf_weight=540.95484720409149 181.34979512661084 575.87829305879131 58.586358085798565 149.15749984668219 110.91459617955843 156.53803448753752
leaf_count=1290849 220362 569816 108566 21783 63028 148093
internal_value=0 0.00196687 0.00652819 -0.00809789 0.0109577 -0.003884
internal_weight=0 1592.03 894.537 207.744 686.793 697.493
internal_count=2422497 2202135 763193 130349 632844 1438942
is_linear=0
shrinkage=0.03


Tree=87
num_leaves=7
num_cat=0
split_feature=0 11 11 2 9 1
split_gain=137.509 60.6743 55.7673 54.8726 53.178 36.2408
threshold=0.0028315605595707898 1.0000000180025095e-35 1.0000000180025095e-35 -0.00056725056492723514 1.0000000180025095e-35 0.30910205841064459
decision_type=2 2 2 2 2 2
left_child=2 4 3 -1 -2 -3
right_child=1 5 -4 -5 -6 -7
leaf_value=-0.015625259129745953 -0.017471032817719959 -0.0034404184536583502 0.027102249633067281 0.0062771696993112226 0.021169488584087785 0.045278506297373705
leaf_weight=114.47805402263475 495.2877219727452 30.972231375606498 101.34468401491904 950.39996108255582 33.439567773079034 23.516881357660168
leaf_count=81556 407683 46368 149880 1662741 50578 23691
internal_value=0 -0.0118817 0.00594702 0.00391013 -0.0149918 0.0180232
internal_weight=0 583.216 1166.22 1064.88 528.727 54.4891
internal_count=2422497 528320 1894177 1744297 458261 70059
is_linear=0
shrinkage=0.03


Tree=88
num_leaves=7
num_cat=0
split_feature=11 5 6 3 4 3
split_gain=520.716 69.2076 67.6566 52.282 43.1314 42.6712
threshold=1.0000000180025095e-35 0.30305343866348272 1.0000000180025095e-35 0.89175415039062511 4.4500000476837167 0.62465870380401622
decision_type=2 2 2 2 2 2
left_child=2 3 5 -2 -4 -1
right_child=1 -3 4 -5 -6 -7
leaf_value=0.010758979912918621 -0.029937958325831762 0.02636849861827309 -0.0087387353552601209 0.031920403178343687 0.0098745197411518066 0.025623999644965464
leaf_weight=517.46249646299839 461.91793168077129 21.022031683503883 209.55206190558965 11.853462610582936 238.50512512751448 262.9975721037772
leaf_count=1719437 173103 43988 63723 2848 117876 301522
internal_value=0 -0.025954 0.0104658 -0.0283263 0.0011692 0.0157945
internal_weight=0 494.793 1228.52 473.771 448.057 780.46
internal_count=2422497 219939 2202558 175951 181599 2020959
is_linear=0
shrinkage=0.03


Tree=89
num_leaves=7
num_cat=0
split_feature=3 5 11 1 16 0
split_gain=130.636 109.677 89.9734 70.3491 60.7948 56.9799
threshold=0.62465870380401622 0.26793894171714788 1.0000000180025095e-35 0.45146355032920843 1.0000000180025095e-35 -3.621452196966856e-05
decision_type=2 2 2 2 2 2
left_child=3 2 4 -1 -2 -3
right_child=1 5 -4 -5 -6 -7
leaf_value=0.0050369144887440756 0.0028724199784632078 -0.00090590216064796259 0.036526020685809159 0.03043064409496812 -0.023644417231851227 -0.026536517344488326
leaf_weight=733.41235290717304 338.7767467114536 106.56516762152751 57.060999471505056 112.48535116622952 99.954914358386304 291.61061597374646
leaf_count=1918550 198519 32918 57237 87419 31017 96837
internal_value=0 -0.00799203 0.00142856 0.00844565 -0.00320886 -0.0196964
internal_weight=0 893.968 495.793 845.898 438.732 398.176
internal_count=2422497 416528 286773 2005969 229536 129755
is_linear=0
shrinkage=0.03


Tree=90
num_leaves=7
num_cat=0
split_feature=11 4 3 5 5 2
split_gain=146.688 128.619 82.9741 47.4276 45.6778 25.7578
threshold=1.0000000180025095e-35 4.5499999523162851 0.62465870380401622 0.28167939186096197 0.37938931584358221 0.00086857893620617699
decision_type=2 2 2 2 2 2
left_child=4 -2 -3 -4 5 -1
right_child=1 2 3 -5 -6 -7
leaf_value=0.00017712330646429912 0.0289275192451037 0.023344891402116982 -0.032016912027473407 0.026001226943211407 0.017371478927807115 0.012110350469997169
leaf_weight=1011.0332087277275 46.297917453804985 29.070274932630127 265.76155727152945 12.594220043494714 205.54699236960005 193.04313841434487
leaf_count=1675432 107583 67033 32911 12412 344068 183058
internal_value=0 -0.017245 -0.0242698 -0.0293082 0.00433653 0.00209878
internal_weight=0 353.724 307.426 278.356 1409.62 1204.08
internal_count=2422497 219939 112356 45323 2202558 1858490
is_linear=0
shrinkage=0.03


Tree=91
num_leaves=7
num_cat=0
split_feature=2 9 11 5 4 3
split_gain=68.0703 67.7967 150.03 62.6568 55.1029 35.6204
threshold=0.0015328496228903534 1.0000000180025095e-35 1.0000000180025095e-35 0.29694655537605291 4.7500000000000009 0.77936464548110973
decision_type=2 2 2 2 2 2
left_child=3 2 5 -1 -4 -2
right_child=1 -3 4 -5 -6 -7
leaf_value=0.0066155600537120864 0.030536201602398314 -0.041530149386123955 -0.037090989353839393 -0.0071877255073158905 0.016488712290767916 -0.0040663935519229142
leaf_weight=1040.3022716845298 76.063725702602824 58.930480085284216 105.69364313270489 412.57119912045164 20.013173602390452 40.702424631206668
leaf_count=1759429 106103 14082 26029 496993 8158 11703
internal_value=0 -0.0129501 -0.005862 0.00269361 -0.028498 0.0185423
internal_weight=0 301.403 242.473 1452.87 125.707 116.766
internal_count=2422497 166075 151993 2256422 34187 117806
is_linear=0
shrinkage=0.03


Tree=92
num_leaves=7
num_cat=0
split_feature=2 3 0 9 3 4
split_gain=181.695 102.277 55.382 37.5763 29.7405 28.4957
threshold=0.00079503815504722308 0.62465870380401622 0.0055117399897426375 1.0000000180025095e-35 1.0000000180025095e-35 4.4500000476837167
decision_type=2 2 2 2 2 2
left_child=4 2 -2 5 -1 -3
right_child=1 3 -4 -5 -6 -7
leaf_value=-0.042599506649031497 -0.011457961915829176 -0.015935076270457045 -0.039032708503905146 -0.029805852377123642 0.0070887665871626794 0.0077184231860228285
leaf_weight=9.9597887724376033 115.3738038510055 58.463595570654434 154.33494071667519 36.547444219715544 1181.8068172604326 199.2333299171587
leaf_count=442560 72947 34209 109271 9650 1673097 80763
internal_value=0 -0.0140149 -0.0273229 -0.00176533 0.00663815 0.00231131
internal_weight=0 563.953 269.709 294.244 1191.77 257.697
internal_count=2422497 306840 182218 124622 2115657 114972
is_linear=0
shrinkage=0.03


Tree=93
num_leaves=7
num_cat=0
split_feature=5 5 15 1 3 0
split_gain=38.2049 24.0969 27.2516 34.3134 18.1562 13.4779
threshold=0.39007633924484258 0.02519083954393864 1.0000000180025095e-35 0.30479583144187933 1.0000000180025095e-35 -0.00025499188632238651
decision_type=2 2 2 2 2 2
left_child=1 -1 4 -4 -3 -2
right_child=5 2 3 -5 -6 -7
leaf_value=0.021960578640448029 0.0002765354609796491 -0.041442448245999866 -0.019919658164357534 0.041720362567779584 -0.00082750794276601511 0.015622877424186195
leaf_weight=36.677241228528146 73.700025304613519 8.9783720239793166 116.30972915875464 7.8077508416754418 1378.6839990661683 170.31678199507587
leaf_count=103925 64682 361920 134545 13926 1477996 265503
internal_value=0 -0.00174069 -0.00232984 -0.0157397 -0.00111995 0.0110079
internal_weight=0 1548.46 1511.78 124.117 1387.66 244.017
internal_count=2422497 2092312 1988387 148471 1839916 330185
is_linear=0
shrinkage=0.03


Tree=94
num_leaves=7
num_cat=0
split_feature=5 2 4 2 1 5
split_gain=22.4641 21.7389 25.3617 25.3756 21.3807 40.8265
threshold=0.36564886569976812 0.0011951058404520156 4.4500000476837167 0.0015328496228903534 0.45146355032920843 0.075572520494461073
decision_type=2 2 2 2 2 2
left_child=1 4 -3 -4 -1 -6
right_child=-2 2 3 -5 5 -7
leaf_value=0.0023512236916973898 -0.0064005841505030536 0.032289838997390179 0.026151802671555816 -0.00032746860453053542 -0.031610482153782114 -0.0016812548200374306
leaf_weight=902.45715560390454 385.53717802854226 38.126530364555947 41.080351262949989 144.04883459959092 49.425932675323565 220.59961433250282
leaf_count=1811145 378988 58055 25816 88965 13399 46129
internal_value=0 0.0017713 0.0103291 0.00565724 0.000134366 -0.00725597
internal_weight=0 1395.74 223.256 185.129 1172.48 270.026
internal_count=2422497 2043509 172836 114781 1870673 59528
is_linear=0
shrinkage=0.03


Tree=95
num_leaves=7
num_cat=0
split_feature=2 4 2 5 5 3
split_gain=68.9547 64.1452 49.2972 24.9576 27.2521 24.3516
threshold=0.0012783415731973948 4.4500000476837167 0.0014763516956008973 0.02519083954393864 0.023664122447371486 1.0000000180025095e-35
decision_type=2 2 2 2 2 2
left_child=3 -2 -3 4 -1 -5
right_child=1 2 -4 5 -6 -7
leaf_value=0.0039605817766862547 -0.026527965763059141 -0.028968487910879401 0.0046910974464944386 -0.041244272262838701 -0.033418224978023131 0.0044656818426552216
leaf_weight=35.630254404641164 148.32856497188914 47.355159347207518 205.01690907434386 9.5824555799845239 33.245915936975507 1304.8571397217893
leaf_count=87652 67200 18229 115280 422880 10356 1700900
internal_value=0 -0.0109428 -0.0017142 0.00317537 -0.0143019 0.00410135
internal_weight=0 400.701 252.372 1383.32 68.8762 1314.44
internal_count=2422497 200709 133509 2221788 98008 2123780
is_linear=0
shrinkage=0.03


Tree=96
num_leaves=7
num_cat=0
split_feature=5 1 13 3 12 1
split_gain=21.941 23.8481 22.3289 19.033 31.9168 21.4994
threshold=0.098473284393548979 0.36351270973682409 1.0000000180025095e-35 0.77936464548110973 1.0000000180025095e-35 0.16738944500684741
decision_type=2 2 2 2 2 2
left_child=1 3 -3 5 -5 -1
right_child=-2 2 -4 4 -6 -7
leaf_value=-0.0037594953786275532 -0.002140170277323944 0.019042516712656252 -0.030825017446126653 0.020484340299870153 -0.026795094802613287 0.011278997210297667
leaf_weight=161.03908995138045 1277.7397304029837 126.7651217809107 7.7428714799607397 16.981859797044308 45.068078347205301 180.61962211426726
leaf_count=497320 1648320 61131 1645 11903 8618 193560
internal_value=0 0.00507536 0.0159656 0.00141645 -0.013736 0.0042004
internal_weight=0 538.217 134.508 403.709 62.0499 341.659
internal_count=2422497 774177 62776 711401 20521 690880
is_linear=0
shrinkage=0.03


Tree=97
num_leaves=7
num_cat=0
split_feature=5 12 2 5 3 4
split_gain=81.251 73.5717 71.8291 35.2398 35.0934 26.7162
threshold=0.1045801527798176 1.0000000180025095e-35 0.0014200131408870222 0.034351145848631866 0.62465870380401622 4.7500000000000009
decision_type=2 2 2 2 2 2
left_child=1 2 3 -1 -3 -4
right_child=-2 4 5 -5 -6 -7
leaf_value=0.0087477093722454855 0.0054509793385110316 -0.0056757574532610546 -0.018879579269128827 -0.010536102938907934 0.02912923213593396 -0.049868857952898173
leaf_weight=104.46427983981994 1040.7462161218937 42.56443212312297 53.691412111889804 448.318192233226 65.160809519133181 49.421249174280092
leaf_count=155615 1601397 101979 28726 468236 57273 9271
internal_value=0 -0.00742661 -0.0112019 -0.00688265 0.0154514 -0.0340689
internal_weight=0 763.62 655.895 552.782 107.725 103.113
internal_count=2422497 821100 661848 623851 159252 37997
is_linear=0
shrinkage=0.03


Tree=98
num_leaves=7
num_cat=0
split_feature=12 1 5 3 3 4
split_gain=204.223 42.3465 34.4273 43.7685 28.0813 27.7586
threshold=1.0000000180025095e-35 0.076413750648498549 0.095419846475124373 0.77936464548110973 1.0000000180025095e-35 4.4500000476837167
decision_type=2 2 2 2 2 2
left_child=4 5 -3 -4 -1 -2
right_child=1 2 3 -5 -6 -7
leaf_value=-0.041116723797357049 -0.058146018858923502 -0.021903877932319227 0.015587313588192252 -0.037209686002446722 0.0053257280566079614 0.012230516930840136
leaf_weight=10.824206101602611 35.719736382954579 242.05277103679691 53.015639627614291 18.14044203463709 1451.5724410078037 5.4856187066106932
leaf_count=429120 14693 114845 60895 2668 1773372 26904
internal_value=0 -0.0203983 -0.0165306 0.00179817 0.00495411 -0.0487091
internal_weight=0 354.414 313.209 71.1561 1462.4 41.2054
internal_count=2422497 220005 178408 63563 2202492 41597
is_linear=0
shrinkage=0.03


Tree=99
num_leaves=7
num_cat=0
split_feature=3 1 2 0 1 2
split_gain=34.4783 34.903 43.9488 44.7042 27.7993 24.4748
threshold=0.70920473337173473 0.24234107136726382 -8.125346369070029e-07 1.0000000180025095e-35 0.24529127776622775 0.0012359407264739277
decision_type=2 2 2 2 2 2
left_child=1 2 -1 -4 -2 -6
right_child=4 -3 3 -5 5 -7
leaf_value=-0.021392802688652981 0.019664388292822303 0.0019258607284190603 0.015409554037443571 -0.0075595774463275362 -0.0059161037178642531 0.013204427200397712
leaf_weight=152.4667059112835 124.42919636450097 835.95249721107393 94.797983811604354 373.31571551870002 139.80374465214118 104.35924267135852
leaf_count=364866 129373 454288 537982 882807 25941 27240
internal_value=0 -0.00207521 -0.00745929 -0.00288515 0.00818385 0.00227685
internal_weight=0 1456.53 620.58 468.114 368.592 244.163
internal_count=2422497 2239943 1785655 1420789 182554 53181
is_linear=0
shrinkage=0.03


Tree=100
num_leaves=7
num_cat=0
split_feature=1 16 3 5 2 5
split_gain=185.95 78.2128 50.7772 38.8841 31.3775 32.1263
threshold=0.14458588510751727 1.0000000180025095e-35 0.70920473337173473 0.11679389327764512 0.0022591747110709552 0.077099237591028227
decision_type=2 2 2 2 2 2
left_child=1 2 -1 -3 -2 -6
right_child=4 3 -4 -5 5 -7
leaf_value=-0.0011877688774838122 0.0081147342281260131 0.0017531677326909178 -0.022433717010988383 -0.048045943287669653 0.026758156640727494 -0.0091135344173066436
leaf_weight=258.27531728173199 1089.4276292866416 17.022036224741896 165.64059525710763 79.61925523220998 24.681085067408276 179.78114445236861
leaf_count=1259271 840207 67830 80418 77452 20698 76621
internal_value=0 -0.0151242 -0.00952265 -0.0393464 0.00609176 -0.00467422
internal_weight=0 520.557 423.916 96.6413 1293.89 204.462
internal_count=2422497 1484971 1339689 145282 937526 97319
is_linear=0
shrinkage=0.03


Tree=101
num_leaves=7
num_cat=0
split_feature=3 3 1 1 1 0
split_gain=28.405 20.2855 17.3361 14.8421 25.9345 12.5893
threshold=1.0000000180025095e-35 0.77936464548110973 0.0049150667618960151 0.22600323706865313 0.44268600642681127 0.027956402860581878
decision_type=2 2 2 2 2 2
left_child=-1 2 -2 -3 -5 -4
right_child=1 3 5 4 -6 -7
leaf_value=-0.041333372866283427 -0.047932881958672117 0.024831378504648886 -0.00037167519979856281 -0.003110146861626199 0.022345266830851085 -0.033047557163699962
leaf_weight=13.843722204725053 5.9904228542291085 42.202153376536444 1614.7177695525243 112.32438610857935 51.889455490134424 9.6823123273352376
leaf_count=442560 40217 47124 1857613 19291 5003 10689
internal_value=0 0.000333835 -0.000789889 0.00917066 0.00502 -0.000586653
internal_weight=0 1836.81 1630.39 206.416 164.214 1624.4
internal_count=2422497 1979937 1908519 71418 24294 1868302
is_linear=0
shrinkage=0.03


Tree=102
num_leaves=7
num_cat=0
split_feature=3 1 0 0 5 0
split_gain=25.357 16.1932 27.0911 26.0835 15.9267 25.1946
threshold=1.0000000180025095e-35 0.074352350085973754 -5.4392572565120638e-05 1.0000000180025095e-35 0.041984731331467635 0.002051549963653088
decision_type=2 2 2 2 2 2
left_child=-1 2 -2 -4 5 -3
right_child=1 4 3 -5 -6 -7
leaf_value=-0.040534566538516018 -0.026981381284192054 0.00049092238010430933 0.019231110718434849 -0.0082604068593358435 0.0024285523762813854 -0.02313529060973326
leaf_weight=12.785684620637765 48.139472917668172 131.21246259727923 39.932085161563009 127.85524312447524 1422.7230036259934 57.811528780803201
leaf_count=442560 204105 87777 83287 453713 1104069 46986
internal_value=0 0.000305572 -0.00738995 -0.00164246 0.00134049 -0.0068187
internal_weight=0 1827.67 215.927 167.787 1611.75 189.024
internal_count=2422497 1979937 741105 537000 1238832 134763
is_linear=0
shrinkage=0.03


Tree=103
num_leaves=7
num_cat=0
split_feature=1 3 17 11 3 2
split_gain=54.2833 46.2816 15.0943 15.5038 14.8419 64.7721
threshold=0.074352350085973754 0.62465870380401622 1.0000000180025095e-35 1.0000000180025095e-35 0.373610869050026 7.8911452305874274e-07
decision_type=2 2 2 2 2 2
left_child=1 2 3 -1 5 -2
right_child=4 -3 -4 -5 -6 -7
leaf_value=-0.025527958956085183 7.132006043297369e-05 0.010882426719540053 0.0070336171303451182 0.0084991980174349384 0.0032949369899828084 -0.052752887821206698
leaf_weight=157.38324514354463 243.04367920229197 54.610477617272409 16.097685965607525 12.576288509029835 1331.5493076355633 21.855601551855216
leaf_count=673227 354257 120669 162018 25652 908270 178404
internal_value=0 -0.0132512 -0.020355 -0.0229751 0.00200468 -0.00446896
internal_weight=0 240.668 186.057 169.96 1596.45 264.899
internal_count=2422497 981566 860897 698879 1440931 532661
is_linear=0
shrinkage=0.03


Tree=104
num_leaves=7
num_cat=0
split_feature=3 3 5 0 2 2
split_gain=24.7383 11.2895 11.7227 15.0084 10.2439 5.04333
threshold=1.0000000180025095e-35 0.9801262915134431 0.10916030406951906 -1.0000000180025095e-35 4.6568100060540027e-06 0.0046809196937829265
decision_type=2 2 2 2 2 2
left_child=-1 2 3 -2 -4 -3
right_child=1 5 4 -5 -6 -7
leaf_value=-0.039923887877502465 -0.0065088067066087331 -0.051444419105336564 0.001689207515507572 0.005800039836369955 -0.0039048093288070133 0.0053204383569634677
leaf_weight=12.863121171481906 106.31087149564701 4.4496560666593714 547.95516618080728 529.14410761568433 635.15228041462251 1.6645149589166974
leaf_count=442560 182176 779 478117 522211 796486 168
internal_value=0 0.000303153 0.000450458 0.00373379 -0.00131471 -0.0374152
internal_weight=0 1824.68 1818.56 635.455 1183.11 6.11417
internal_count=2422497 1979937 1978990 704387 1274603 947
is_linear=0
shrinkage=0.03


Tree=105
num_leaves=6
num_cat=0
split_feature=3 1 0 2 11
split_gain=22.6859 11.4128 10.1006 11.2766 5.09787
threshold=1.0000000180025095e-35 0.0049150667618960151 -0.009407958481460808 -0.0041061218362301579 1.0000000180025095e-35
decision_type=2 2 2 2 2
left_child=-1 -2 4 -4 -3
right_child=1 2 3 -5 -6
leaf_value=-0.039252590334174831 -0.043454234029964449 -0.0058120482459758302 0.03118006026806764 0.00047813732107200401 -0.034782665681132745
leaf_weight=12.156591763552568 4.3538478499540352 12.38925524361548 9.8324881460866873 1788.2377810987164 9.5328959705657326
leaf_count=442560 40648 30529 591 1903253 4916
internal_value=0 0.000282922 0.000411357 0.000663264 -0.0193778
internal_weight=0 1824.35 1819.99 1798.07 21.9222
internal_count=2422497 1979937 1939289 1903844 35445
is_linear=0
shrinkage=0.03


Tree=106
num_leaves=7
num_cat=0
split_feature=3 5 0 2 3 14
split_gain=21.1872 11.2631 14.7973 16.7861 14.4099 22.4481
threshold=1.0000000180025095e-35 0.26183205842971807 0.0024076495319604878 0.00092230187146924447 0.51814328134059917 1.0000000180025095e-35
decision_type=2 2 2 2 2 2
left_child=-1 2 3 -2 5 -3
right_child=1 4 -4 -5 -6 -7
leaf_value=-0.038665026446734189 0.000130975250027311 0.0027128606716946015 -0.0060092796441562164 0.021679019642747606 0.0078310971776493678 -0.025233416425332923
leaf_weight=11.667291618097805 931.13003856595606 117.42188129080023 394.04998930272995 32.715620731556555 321.46917036662489 32.12331931242079
leaf_count=442560 987902 257753 409319 5316 264086 55561
internal_value=0 0.000267651 -0.00111926 0.000884087 0.0042599 -0.00341793
internal_weight=0 1828.91 1357.9 963.846 471.014 149.545
internal_count=2422497 1979937 1402537 993218 577400 313314
is_linear=0
shrinkage=0.03


Tree=107
num_leaves=7
num_cat=0
split_feature=3 2 1 1 16 1
split_gain=20.7609 11.1429 15.1578 19.1294 16.1514 8.18855
threshold=1.0000000180025095e-35 0.0052698329091072091 0.38075070083141332 0.16738944500684741 1.0000000180025095e-35 0.35790449380874639
decision_type=2 2 2 2 2 2
left_child=-1 2 3 -2 -4 -3
right_child=1 5 4 -5 -6 -7
leaf_value=-0.038238002868806541 -0.0032730874213116245 -0.012550410513987803 -0.005780564782515013 0.0046563497164024076 0.010180313578573637 0.016692672954879466
leaf_weight=11.691730118265694 428.88435811364616 9.4045950964791682 533.53613725220202 753.59818025810819 62.96193508952274 55.793094102162286
leaf_count=442560 1260755 10777 139748 530806 20754 17097
internal_value=0 0.000263011 -0.0001866 0.00178002 -0.00408163 0.0123486
internal_weight=0 1844.18 1778.98 1182.48 596.498 65.1977
internal_count=2422497 1979937 1952063 1791561 160502 27874
is_linear=0
shrinkage=0.03


Tree=108
num_leaves=7
num_cat=0
split_feature=3 16 1 5 1 1
